{"features": ["hp", "shield", "armed", "exo_on", "mag_frac", "spd", "enemy_vis", "enemy_dist", "crate_vis", "crate_dist", "air_vis", "box_vis", "firing", "crouch", "n_enemies_seen", "alive_frac", "t_frac", "dist_center", "air_dist"], "actions": ["FIGHT", "LOOT", "GETEXO", "FLEE", "HUNT", "EXPLORE", "COVER"], "layers": [{"w": [[-0.04465871676802635, 0.24542851746082306, 0.10542373359203339, -0.2053893506526947, -0.3115062713623047, -0.006620796397328377, -0.09924838691949844, 0.004207035060971975, -0.2971765398979187, -0.40071502327919006, 0.6986631155014038, 0.2607486844062805, 0.08918389678001404, 0.4465622901916504, 0.25548121333122253, 0.41730761528015137, 0.14632312953472137, -0.6133050918579102, 0.24137325584888458], [0.04074406623840332, 0.00467623770236969, -0.025426331907510757, -0.04905930906534195, 0.02105114981532097, -0.019874585792422295, -0.003798742312937975, -0.0024922394659370184, -0.024226192384958267, -0.02381540834903717, 0.04113297909498215, -0.04076515510678291, 0.01729683391749859, 0.0398147776722908, -0.05482635647058487, 0.0011994467349722981, -0.024154989048838615, 0.02339033968746662, -0.06507793068885803], [-0.1831502467393875, -0.7532051801681519, 0.1290764957666397, 0.6643322706222534, 0.3121001124382019, 0.020109882578253746, -0.10442620515823364, -0.01481329184025526, -0.006277873646467924, 0.164481520652771, -0.03980110213160515, -0.881960928440094, -1.4903558492660522, 0.23748557269573212, -0.013721984811127186, -0.5318737626075745, 0.4075824022293091, 0.9311718940734863, 0.08129879832267761], [-0.35843729972839355, -0.4396660029888153, -0.06502450257539749, 0.5605050325393677, -0.027211109176278114, 0.009659558534622192, 0.03071177378296852, -0.33149853348731995, 0.14476707577705383, -0.4155615270137787, 0.33106547594070435, 0.033698670566082, -0.8688785433769226, 0.2072385847568512, -0.2223035991191864, 0.5520577430725098, 0.005814469885081053, 1.3688493967056274, 0.13943368196487427], [0.23426109552383423, -2.0645787715911865, 0.7762017250061035, -0.054108209908008575, -0.9861918091773987, 0.3843727111816406, 0.08242451399564743, -1.2907447814941406, -0.24777421355247498, 0.32634997367858887, -0.5248573422431946, -0.4985143840312958, -1.6718074083328247, 0.5648853778839111, -0.818881630897522, -0.21944662928581238, 0.11255238205194473, 0.12746168673038483, -0.08853918313980103], [0.26267871260643005, -0.18428659439086914, 0.11672995984554291, 0.2904207408428192, -8.820611953735352, 0.2328626811504364, 0.0693763867020607, -0.07478611916303635, 0.4839571714401245, 0.6039225459098816, -0.10651564598083496, -0.13344806432724, 0.14341458678245544, 1.132702112197876, -0.38547709584236145, 0.34703633189201355, -0.32507485151290894, -0.7375527620315552, -0.5130970478057861], [-0.037654124200344086, 0.508697509765625, 0.36085766553878784, 0.0846717357635498, 0.24002932012081146, -0.0535513274371624, -0.07882655411958694, 0.3450465500354767, 0.27924951910972595, 0.0348665826022625, -1.048405647277832, 0.14897719025611877, -1.1112258434295654, -0.6060575842857361, 0.21085309982299805, -0.002128459047526121, -0.11309007555246353, 0.18683946132659912, -0.24291183054447174], [-0.024726511910557747, -0.244795560836792, -1.0309700965881348, 0.08501242846250534, -0.6121521592140198, -0.6589444279670715, 0.08689240366220474, 0.024408278986811638, 0.1482846885919571, 0.35795193910598755, 0.38776588439941406, -0.6525811553001404, 0.23141802847385406, 0.8193187713623047, -0.23807765543460846, -0.28620654344558716, 0.8013392686843872, -0.6144332885742188, 0.5159541368484497], [0.2740894854068756, 0.04331613704562187, -0.06964239478111267, -0.2824099361896515, -0.07785340398550034, -0.09617914259433746, 0.1816563904285431, -0.14147727191448212, 0.21194647252559662, 0.5532293915748596, 0.019807539880275726, 0.2010256052017212, -0.10615291446447372, -0.7317758202552795, -0.05672897771000862, -0.5442941784858704, 0.7711888551712036, -0.22500206530094147, -0.26822251081466675], [0.19271214306354523, 0.5553516149520874, 0.035570695996284485, 0.02880227565765381, -0.6386852860450745, -0.2322806864976883, 0.17081095278263092, -1.9725223779678345, -0.5152937769889832, -0.03851606696844101, -0.04767044261097908, 0.616580605506897, -0.730355441570282, -0.15403835475444794, 0.000592506374232471, 0.1883602738380432, 0.05520763248205185, -0.7977966070175171, 0.2029886394739151], [0.11963599920272827, 0.16991722583770752, -0.185834139585495, -0.33249688148498535, -0.23235036432743073, -0.08340471982955933, 0.5399158596992493, -0.35821041464805603, -0.06232670322060585, -0.1979801058769226, -0.2745113670825958, -0.2939451336860657, -0.6084495782852173, -0.006417055614292622, 0.07512947171926498, -0.31757670640945435, 0.3158544898033142, 1.7795649766921997, -0.2649691104888916], [-0.09394707530736923, 0.15148645639419556, 0.4115270674228668, -0.0969618484377861, -0.8480446338653564, -0.030353834852576256, 0.10764789581298828, 1.064056158065796, 0.005986326839774847, -0.03302324190735817, -0.9424538612365723, -0.1399419903755188, -1.3982175588607788, 0.401996374130249, 0.13017885386943817, -0.10589533299207687, -0.014467471279203892, -0.7318899631500244, -0.3002924919128418], [0.2558046877384186, 0.6972464323043823, 0.1578112542629242, 0.24894388020038605, 0.09125995635986328, -0.19465351104736328, -0.39751219749450684, -0.32025203108787537, -0.18922048807144165, -0.17840324342250824, 0.4180779755115509, 0.052207157015800476, -1.3967314958572388, 0.2224084436893463, -0.8302589058876038, -0.1511930674314499, 0.21873052418231964, 1.0196473598480225, 0.17592419683933258], [0.003240305697545409, -0.792995810508728, 0.19017146527767181, 0.8489072918891907, -0.15768928825855255, 0.030270453542470932, -0.07716519385576248, 0.32718658447265625, 0.17875252664089203, 0.28358426690101624, -0.23972733318805695, -0.09993604570627213, 0.01207805797457695, -0.03579069301486015, 0.32759717106819153, 0.05340178310871124, 0.026105839759111404, 0.6431358456611633, -0.3952706754207611], [0.2571822702884674, 0.2646973431110382, 0.6713449358940125, -0.6206872463226318, -0.3079366981983185, -0.19294528663158417, 0.3568101227283478, 0.22721529006958008, 0.009952344000339508, 0.17226743698120117, 0.2937416732311249, 1.0166586637496948, 0.5349535942077637, 0.39937248826026917, 0.055206041783094406, -0.03711801394820213, -0.1943429410457611, -0.2810722589492798, -0.2905067801475525], [0.6493660807609558, 0.14371293783187866, 0.08091092854738235, -0.12706029415130615, 0.33301985263824463, 0.030904171988368034, -0.33321720361709595, -0.1788037270307541, -0.8381654024124146, 0.31247931718826294, 0.39332231879234314, 0.09317760169506073, 0.17556291818618774, -0.120514877140522, 0.18751811981201172, 0.15802551805973053, -0.9505677819252014, -0.7353748083114624, 0.19008393585681915], [0.02961265668272972, 0.0906803160905838, 0.06883345544338226, 0.23733845353126526, 0.6563373804092407, -0.05508771911263466, -0.1185486689209938, -0.004589719232171774, 0.04561391472816467, -0.11556991934776306, 0.31038975715637207, -0.11532343178987503, -0.5680515766143799, -0.11851457506418228, 0.28373193740844727, 0.1233472004532814, 0.22093212604522705, 1.1313191652297974, -0.24990339577198029], [-0.10928361862897873, 0.09835116565227509, 0.17479166388511658, -0.06318923830986023, 0.20597316324710846, 1.1773700714111328, -0.0066753895953297615, -0.06950399279594421, -0.029128042981028557, 0.23432467877864838, -0.18315377831459045, 0.018747804686427116, 0.8747859597206116, 0.3976375162601471, 0.07475101947784424, -0.24762055277824402, 0.06055087968707085, -0.44724297523498535, 0.06215175986289978], [-0.16949433088302612, -0.31423038244247437, -0.04126094654202461, -0.16332048177719116, 0.5011193752288818, -0.6837919354438782, -0.1309354603290558, -0.20772098004817963, 0.5511457920074463, 0.6660845279693604, 0.3619411587715149, 0.05384451150894165, 0.42644834518432617, 0.48888421058654785, 0.34336215257644653, 0.1231565847992897, 0.16606296598911285, 0.4278287887573242, -0.08322888612747192], [-0.07150711864233017, 0.021368568763136864, -0.05619679018855095, -0.00048736316966824234, 0.032305698841810226, -0.030502529814839363, -0.04461526498198509, -0.0116238072514534, 0.04560369998216629, -0.0390615314245224, -0.03946925327181816, -0.020863603800535202, 0.019951902329921722, 0.007339936215430498, 0.006622496526688337, -0.026090558618307114, -0.020924260839819908, 0.03260912746191025, -0.08632401376962662], [0.34456154704093933, -0.0025628600269556046, 0.08323656022548676, 0.3493693172931671, 0.06013728305697441, 0.04303698614239693, 0.08787082135677338, -0.036724288016557693, 0.06584609299898148, -0.18789659440517426, -0.2340552806854248, -0.7504681348800659, -0.7493593692779541, -0.3854913115501404, -1.0566396713256836, -0.04501962661743164, -0.10235226154327393, -0.5706804990768433, -0.13029319047927856], [0.03036614879965782, 0.5783460140228271, 0.3493865430355072, -0.3938203752040863, -0.2989991009235382, 0.003567717270925641, 0.15670885145664215, 0.0416865199804306, 0.16744129359722137, 0.10582438111305237, 0.005799687933176756, 0.6026021242141724, 0.3083556890487671, -0.08011194318532944, -0.008866719901561737, -0.14374341070652008, -0.27609914541244507, 1.1067031621932983, 0.13242490589618683], [0.0016812920803204179, 0.2976195216178894, -1.51116144657135, 0.23326849937438965, -0.21094806492328644, -2.3009033203125, -0.10091858357191086, -0.09169083088636398, 0.38891923427581787, 0.132319375872612, -0.02587612345814705, 0.08920086920261383, 1.9003065824508667, -1.2879329919815063, 0.2271927446126938, 0.13514208793640137, -0.1164739727973938, 0.08928343653678894, 0.5576340556144714], [-0.22159121930599213, -0.25628843903541565, 0.31392213702201843, -0.07517771422863007, -0.02047622576355934, 0.29438212513923645, -0.5754628777503967, 0.2804352343082428, 0.35919031500816345, -1.2639057636260986, 0.1625789850950241, -0.09483847767114639, -0.24416886270046234, -0.21065634489059448, 0.4804198443889618, 0.3496007025241852, 0.353885680437088, -0.2398039847612381, 0.12094807624816895], [0.018445393070578575, 0.07887951284646988, -0.3004132807254791, -0.14855912327766418, 0.19574181735515594, 0.48876941204071045, 0.04183094948530197, -0.30960771441459656, 0.1901608109474182, -0.024669772014021873, 0.1422727108001709, 0.42615681886672974, -0.15005481243133545, -0.36453548073768616, -0.2028600573539734, -0.10985629260540009, 0.19518114626407623, 1.0365126132965088, 0.46652716398239136], [0.10877113044261932, 0.5380685329437256, 0.2967039942741394, -0.3448740243911743, 0.05844389274716377, -0.5385971665382385, 0.2891328036785126, -0.468261182308197, 0.5392012596130371, 0.33722227811813354, 0.5152026414871216, 0.34594905376434326, -0.5464430451393127, -0.16370773315429688, 0.48411130905151367, -0.5959516763687134, 0.02469303458929062, 0.10441991686820984, -0.3122800886631012], [0.1006254330277443, 0.22737649083137512, 0.22557879984378815, -0.025635670870542526, 0.17848828434944153, -0.04213845357298851, 0.33804959058761597, 0.4105261266231537, -0.26378104090690613, -0.045096129179000854, 0.17134052515029907, 0.33471551537513733, -1.1450446844100952, -0.4597780108451843, -0.17873476445674896, 0.16197071969509125, -1.7272993326187134, -1.3476206064224243, 0.13621331751346588], [-0.25218459963798523, 0.4041955769062042, 0.2604321241378784, -0.13847509026527405, -0.26100653409957886, 0.020464451983571053, -0.07023408263921738, -0.8187170624732971, -0.3298036754131317, 0.18904511630535126, -0.5298397541046143, 0.19644923508167267, 0.8257803916931152, -0.2522839307785034, -0.11282867193222046, 0.24850347638130188, -0.022930042818188667, -0.854678213596344, 0.6367526650428772], [-0.0374940000474453, 0.6450525522232056, -0.017782889306545258, -0.6343700289726257, 0.004890753421932459, 0.3907819986343384, 0.13904047012329102, 0.2691804766654968, -0.06059826537966728, 0.0012693151365965605, -0.20522341132164001, -0.10335090756416321, 0.0430351160466671, 0.2769888937473297, 0.4168502986431122, 0.04624566435813904, -0.004585899878293276, 0.7214593887329102, -0.04278966411948204], [-0.13655300438404083, -0.42048296332359314, -0.15800094604492188, 0.04399939253926277, 0.15004375576972961, -0.06665664166212082, 0.26334014534950256, -0.1331285536289215, -0.36502349376678467, -0.23093724250793457, 0.004585197661072016, 0.020695174112915993, 0.22650845348834991, -0.8934020400047302, 0.4209076762199402, 0.45887815952301025, 0.9094698429107666, -0.07710538804531097, -0.23934155702590942], [0.42006784677505493, -0.9750921130180359, 0.4607386291027069, -0.07381845265626907, -0.38962000608444214, 0.009367750026285648, -0.06517371535301208, 0.33062222599983215, -0.0026218972634524107, -1.1841228008270264, 0.2662350833415985, 0.04004998132586479, -0.9473192095756531, -0.16619732975959778, 0.0516703762114048, -0.3829713463783264, -0.3141317069530487, 0.66873699426651, 0.17629371583461761], [-0.2291260063648224, -0.08577647060155869, 0.1415933519601822, 0.46547648310661316, -0.2808304727077484, 0.46442940831184387, 0.2588385045528412, 0.026841403916478157, -0.21366862952709198, 0.16742393374443054, 0.25604602694511414, -0.3251762390136719, -0.8376071453094482, -0.16577757894992828, 0.0036621843464672565, -0.20019182562828064, 0.3247503340244293, 0.4404744803905487, 0.16680216789245605], [0.15485550463199615, -0.0903279036283493, -0.15737619996070862, 0.5836215019226074, -0.08724769204854965, 0.021190665662288666, 0.22887751460075378, -0.34017443656921387, -0.33791229128837585, -0.07899108529090881, -0.7285998463630676, 0.33823060989379883, 0.3026582598686218, 0.2863272428512573, -0.18519985675811768, -0.4256924092769623, 0.10563456267118454, 0.8706663250923157, 0.3591855764389038], [0.16804829239845276, -0.4117653965950012, -0.08351881802082062, -0.3612314760684967, 0.8516137003898621, 0.03177683800458908, 0.4332764744758606, 0.24219444394111633, -0.10114530473947525, 0.015540448017418385, -0.9707696437835693, -0.22524167597293854, 0.20013953745365143, -1.205017328262329, -0.8231169581413269, 0.2700274586677551, 0.09752737730741501, -0.020033108070492744, -0.8194416165351868], [-0.14991973340511322, -0.2639748752117157, 0.5669986605644226, 0.13972607254981995, -0.4179891347885132, -0.4033370912075043, 0.07475195825099945, 0.24538260698318481, -0.027983665466308594, 0.07994285225868225, 0.08532565832138062, 0.06728974729776382, -0.4039609730243683, -0.7168662548065186, 0.34240785241127014, -0.13774609565734863, 0.09895309805870056, 0.9297778606414795, 0.39332205057144165], [0.2828008830547333, 0.1509101390838623, 0.3004787862300873, -0.012015990912914276, 0.2508098781108856, -0.07574433833360672, -0.0376085601747036, -0.32404714822769165, -0.12152597308158875, -0.06500659883022308, -0.38695192337036133, -0.10243076086044312, -0.6111122965812683, 0.37976258993148804, -0.3685424327850342, -0.08888562023639679, 0.3925114572048187, 0.6615638732910156, -0.2512829005718231], [0.04278140515089035, 0.08808325976133347, -0.43100422620773315, -0.2640048861503601, 0.16406676173210144, -0.5256137847900391, 0.6119661331176758, 0.47451233863830566, -0.3263605833053589, 0.1302429437637329, -0.2273956686258316, 0.3866997957229614, 1.0343341827392578, 0.282688170671463, 0.33750760555267334, 0.18650518357753754, -0.32812416553497314, -0.007452334742993116, 0.13013534247875214], [-0.23781701922416687, -0.005193267483264208, -0.0494968481361866, 0.19879694283008575, 0.07274670898914337, 0.035364922136068344, 0.4844014048576355, -0.2186693698167801, -0.3758504092693329, -0.14945994317531586, -0.2852588891983032, -1.0186516046524048, -0.24604623019695282, 0.29049813747406006, 0.3483750820159912, 0.4761483669281006, 0.7833237051963806, 0.7428503036499023, -0.6210489273071289], [0.12696939706802368, 0.013628729619085789, -0.05998704209923744, 0.35332152247428894, -1.0009989738464355, -0.07278722524642944, -0.22623376548290253, 0.2615015208721161, -0.0998690277338028, 0.43482863903045654, 0.5617318153381348, -0.35738006234169006, 1.1122816801071167, 0.19046713411808014, -0.5045315027236938, 0.2461397498846054, 0.31552359461784363, -1.548218846321106, -0.5227425694465637], [0.019688254222273827, -0.012607134878635406, -0.14767411351203918, -0.26544228196144104, -0.0718369260430336, -0.0751894861459732, -0.6638339161872864, 0.6960601806640625, 0.319995254278183, 0.4457242488861084, -0.21051721274852753, -1.0184502601623535, -1.2467299699783325, -0.8463301658630371, -0.0538216307759285, 0.6998814940452576, -1.5142394304275513, -0.3124099671840668, -0.4057527780532837], [-0.18913862109184265, -0.23965904116630554, -0.3773030936717987, 0.4605836570262909, 0.03133847936987877, 0.03425374999642372, -0.21950852870941162, 0.01601855829358101, 0.42621177434921265, 0.4824480414390564, -0.13787220418453217, 0.16991795599460602, -0.2753177583217621, 0.6448011994361877, 0.6803459525108337, -0.2842364013195038, -0.13452714681625366, 1.2264032363891602, 0.45937108993530273], [0.10709843039512634, -1.1306332349777222, 0.210227370262146, -0.2961629629135132, 0.3332759439945221, -0.0185075756162405, -0.17440767586231232, -0.19569329917430878, 0.06397952884435654, 0.37310805916786194, 0.8658161163330078, 0.6173722147941589, -0.6578509211540222, -0.6651805639266968, 1.0877264738082886, -0.07417787611484528, -0.04200346767902374, -0.7417457103729248, 0.07722989469766617], [0.09893213957548141, 0.0238849688321352, 0.13371972739696503, 0.4789156913757324, 0.2664528787136078, 0.10032528638839722, 0.17106002569198608, -0.3558262884616852, -0.07211865484714508, 0.09687337279319763, -0.3608928322792053, 0.18307647109031677, 0.8677312731742859, 0.12783677875995636, -0.49287259578704834, 0.2556425929069519, -0.7931225895881653, 1.2573105096817017, -0.5079922080039978], [3.4874508855864406e-05, 0.2314118891954422, -0.842206597328186, 0.10366570204496384, 0.06412684172391891, 0.06796982884407043, 0.06161348149180412, 0.1160423532128334, 0.23717162013053894, -0.2501757740974426, -0.43158942461013794, 0.5374842286109924, -0.06582490354776382, 0.08916206657886505, 0.11231614649295807, 0.1106426939368248, 0.853411078453064, -0.587955117225647, -0.3766162395477295], [-0.10368268936872482, 0.041784729808568954, 0.48128676414489746, -0.14416897296905518, -0.20326466858386993, -0.5901541113853455, 0.5791721343994141, 0.3401327431201935, 0.02356867492198944, 0.03719121217727661, 0.11895224452018738, 0.4117836356163025, -0.2784072160720825, -0.07517316192388535, 0.4587932229042053, 0.4182945191860199, -0.03231094032526016, -0.4710257649421692, -0.20221048593521118], [-0.348792165517807, -0.25226539373397827, 0.0070344205014407635, -0.056380823254585266, -1.2348345518112183, -0.05625469610095024, -0.0109502412378788, 0.32615482807159424, 0.003830219618976116, -0.4984106123447418, -0.12268662452697754, -0.036591965705156326, 0.24090662598609924, 0.187970831990242, 0.3019063472747803, 0.4790177643299103, -0.2092752456665039, -0.013756549917161465, 0.9702882766723633], [-0.06334775686264038, -0.7927421927452087, 0.35734879970550537, 0.7619749903678894, -0.059313103556632996, -0.27192389965057373, -0.2135770320892334, -0.145217165350914, 0.3186008930206299, 0.13076888024806976, -0.10380017757415771, 0.5474631190299988, 0.02430417388677597, -0.15688392519950867, -0.31635454297065735, 0.18688517808914185, 0.07863856106996536, -0.35867416858673096, -0.018711280077695847], [0.20992395281791687, 0.3032744228839874, -0.8821418881416321, -0.17793872952461243, -0.5072080492973328, -0.026604637503623962, -0.17012198269367218, -0.154995396733284, -0.2566622495651245, 0.1321944296360016, 0.37924081087112427, -0.11883127689361572, -0.3375839591026306, -0.05110235512256622, 0.23306648433208466, -0.4297817051410675, -0.4060654938220978, -0.7440560460090637, 1.1233925819396973], [0.4018828868865967, -0.168303444981575, -0.30584919452667236, 0.02591303177177906, -0.09498266875743866, 0.007824077270925045, 0.05019532889127731, 0.2790880501270294, -0.23253685235977173, -0.23036979138851166, -0.09117443859577179, -0.22058309614658356, -0.3791121542453766, -0.1531955748796463, 0.00897155050188303, -0.1498178094625473, 0.04425956308841705, -1.0934077501296997, 0.561180055141449], [-0.08766444772481918, -0.22768673300743103, 0.28687986731529236, 0.5799487829208374, -0.7421357035636902, -0.08454154431819916, 0.03556005284190178, 0.3542777895927429, -0.7030221819877625, 0.02774297632277012, -0.43170347809791565, 0.32988089323043823, -0.0038596976082772017, 0.1346859633922577, 0.43221771717071533, 0.5214055180549622, -0.8133025169372559, -0.07158300280570984, -0.05002259463071823], [-0.009193871170282364, -0.020822979509830475, -0.010334509424865246, -0.04115879163146019, -0.05217700079083443, -0.053385838866233826, 0.02218172885477543, 0.04130598530173302, -0.02674458734691143, -0.001168763148598373, 0.0042701661586761475, -0.0016826656647026539, -0.060930125415325165, 0.022248651832342148, 0.01842212677001953, -0.019056828692555428, -0.0038422802463173866, -0.023685675114393234, -0.038952089846134186], [-0.17677335441112518, -0.050903212279081345, 0.23195169866085052, 0.08331857621669769, 0.36104318499565125, -0.6910164952278137, -0.1432504802942276, 0.051261674612760544, -0.6958378553390503, 0.7308449149131775, -0.1290300190448761, -0.8005750775337219, -0.795843243598938, 0.12701156735420227, -0.4661577641963959, 0.3081706464290619, 0.43597230315208435, -0.18585674464702606, 0.0456024669110775], [0.03419994190335274, 0.0927879810333252, -0.7150323390960693, -0.3778245151042938, -0.0402291975915432, 0.026960225775837898, -0.2978903651237488, 0.5740401744842529, -0.1783539354801178, 0.23939326405525208, 0.2958533465862274, -0.43580886721611023, -0.5479418635368347, -0.2435285747051239, -0.013765733689069748, -0.7235191464424133, 0.5947654247283936, -0.8379973769187927, 0.3430345952510834], [-0.18392889201641083, 0.20195841789245605, -0.15810522437095642, -0.14992597699165344, 0.19089968502521515, 0.15023551881313324, -0.6009076237678528, 0.100553959608078, -0.5598808526992798, 0.509854257106781, 0.4782412052154541, -0.3687661588191986, 0.09163106232881546, 0.1731335073709488, -0.08762907236814499, 0.4529000222682953, 0.2089136391878128, -1.065783977508545, -0.17040416598320007], [-0.13846135139465332, 0.017166269943118095, 0.16642144322395325, 0.38078054785728455, 0.015497050248086452, 0.3763166069984436, 0.14074353873729706, 0.2451057881116867, 0.1438339203596115, -0.02042902633547783, 0.279303640127182, -0.26084885001182556, -0.6889405846595764, -0.3545593321323395, -0.22519409656524658, 0.10433268547058105, -0.5857276320457458, -1.8637995719909668, -0.03875282034277916], [0.3608439266681671, -0.15060342848300934, 0.5264915227890015, 0.0938989669084549, -0.4898023009300232, -0.023644741624593735, -0.3417089581489563, 0.24171723425388336, 0.19994866847991943, 0.5760161280632019, 0.49898281693458557, -0.5023580193519592, -0.2938074469566345, -0.8138341903686523, 0.2580331563949585, -0.16434888541698456, 0.11294470727443695, -0.6233034133911133, -0.2712104320526123], [0.2536115050315857, -0.10815350711345673, 0.22231751680374146, 0.1854204535484314, 0.11019086837768555, -12.156271934509277, 0.17321361601352692, -0.024805746972560883, 0.004899774212390184, 0.0929350033402443, 0.6399109959602356, -0.817606508731842, -1.457921028137207, -0.3039141893386841, -0.04530039802193642, -0.008733121678233147, 0.09530752152204514, -0.2735413610935211, 0.22112207114696503], [0.10789772123098373, -0.301218718290329, -0.004635305609554052, 0.1968921720981598, 0.3682757318019867, -0.8624288439750671, -0.00908613670617342, 0.11725430935621262, 0.017937814816832542, -0.689098060131073, -0.06566211581230164, 0.1601434051990509, 0.6430192589759827, 0.08823730796575546, 0.09680584073066711, -0.021312637254595757, 0.008953524753451347, 1.8258332014083862, -0.15021245181560516], [-0.15844208002090454, 0.23374351859092712, -0.29406970739364624, -0.47869181632995605, 0.029378123581409454, -0.013572795316576958, 0.2648228406906128, 0.29883867502212524, -0.47940441966056824, 0.33061304688453674, -0.009660919196903706, -0.5614346265792847, -0.18015854060649872, 0.39695078134536743, 0.371814489364624, 0.35877224802970886, -0.5417601466178894, 0.4573078155517578, -0.03186856955289841], [-0.4540475606918335, -0.3525928854942322, 0.5307703614234924, 0.1917041391134262, -0.2481260448694229, 0.15193580090999603, -0.01926802471280098, -0.10742240399122238, 0.7907026410102844, 0.5852575302124023, -0.1271190047264099, 0.11218389868736267, -1.070095181465149, -0.8570210337638855, 0.003822212340310216, -0.19670502841472626, -0.06438492238521576, 1.1629424095153809, 0.05112213268876076], [-0.20769347250461578, -0.06730516999959946, 0.41828086972236633, -0.0026013432070612907, -0.552452564239502, 0.048567209392786026, 0.3548925518989563, 0.44671952724456787, 0.0001546934654470533, 0.31271055340766907, 0.33385708928108215, -0.17262181639671326, -0.4701478183269501, 0.3495764434337616, -0.22575560212135315, -0.15982642769813538, 0.25351548194885254, -0.5151479840278625, -0.3875364363193512], [-0.13148164749145508, 0.1644745022058487, 0.13366475701332092, -0.4635501205921173, 0.1326936036348343, -0.022795405238866806, -0.23883184790611267, -0.15940138697624207, 0.15026959776878357, -0.2687201201915741, 0.6570869088172913, 0.06085323914885521, 0.6039165258407593, 0.05439876392483711, 0.2200603038072586, 0.7492040395736694, 0.4526108503341675, 1.3451505899429321, -0.20990018546581268], [-0.0036072840448468924, -0.10319891571998596, -0.016873499378561974, -0.3266594111919403, -0.20113591849803925, 0.5205526351928711, -0.13030590116977692, -0.21609695255756378, -0.009571162052452564, 0.2851436138153076, 0.21663744747638702, 0.4917454123497009, -0.06631404906511307, -0.08743809908628464, -0.14236050844192505, -0.09686333686113358, 0.2389451265335083, 0.5694432854652405, 0.1668485403060913], [-0.14001280069351196, -1.397588849067688, -0.09908641874790192, -0.39495790004730225, -0.5071849822998047, -0.1872556358575821, -0.28534698486328125, 0.8528346419334412, -0.1770126223564148, 0.08213625103235245, 0.0697048157453537, -0.6144666075706482, -1.1813772916793823, 0.4549312889575958, 0.4574424624443054, 0.025949548929929733, -0.11786447465419769, 0.6710273623466492, 0.42994847893714905]], "b": [0.08098015189170837, -0.05384528636932373, 0.16058789193630219, -0.08710437268018723, 0.3284999132156372, 0.11376940459012985, -0.30613648891448975, 0.16343361139297485, 0.20668131113052368, 0.2862056791782379, 0.04027240723371506, -0.026015210896730423, -0.059843141585588455, -0.2494993358850479, 0.0013594538904726505, 0.20874135196208954, -0.2665097117424011, -0.37995508313179016, -0.026148628443479538, -0.02814248949289322, 0.46404579281806946, -0.2779865562915802, 0.07105439901351929, -0.04707729443907738, -0.19647599756717682, 0.3436129689216614, 0.29764193296432495, 0.3760654628276825, -0.44824886322021484, -0.03416303172707558, 0.14180618524551392, -0.249649316072464, 0.045669570565223694, -0.037695497274398804, -0.1371147632598877, 0.2405012995004654, -0.1421157717704773, -0.5049428939819336, 0.26098600029945374, -0.1371878981590271, -0.36746832728385925, 0.17803128063678741, 0.10572750866413116, 0.016454480588436127, -0.17913934588432312, -0.2975538671016693, 0.24728924036026, 0.2944782078266144, 0.0863211378455162, -0.0672125294804573, -0.051252324134111404, 0.2407355010509491, 0.35400959849357605, 0.1835748255252838, 0.3938581347465515, -0.11924812197685242, 0.22800278663635254, -0.209320530295372, -0.07768038660287857, -0.3598117530345917, 0.14826427400112152, -0.5585340261459351, 0.03877519071102142, -0.3282739818096161]}, {"w": [[0.11596710979938507, 0.026361307129263878, -1.5473226308822632, -0.39133861660957336, 1.090851902961731, 0.2840464413166046, 0.13823291659355164, 0.5413941740989685, 0.18185648322105408, -0.18203583359718323, -0.21061338484287262, 0.08238791674375534, 0.11464041471481323, -0.24380774796009064, -0.09236489981412888, 0.138010635972023, -0.010811228305101395, 0.6955844759941101, 0.2683456242084503, -0.004926617722958326, 0.21662655472755432, -0.09736300259828568, -0.18488962948322296, -0.4664648771286011, 0.141030415892601, -0.6143859624862671, -0.3399951457977295, -0.4585215449333191, 0.21201223134994507, -0.08957265317440033, -0.05819502845406532, 0.3065599203109741, -0.11798182874917984, -0.11670122295618057, -0.7575142979621887, -0.11627112329006195, -0.1298934370279312, -0.46827206015586853, 0.06717883795499802, 0.42256516218185425, 0.3833256661891937, 0.3671872913837433, -0.36794185638427734, 0.2527245879173279, -0.14843742549419403, -0.19699163734912872, -0.9529784917831421, 0.40928971767425537, 0.7000249624252319, -0.20928364992141724, -0.016155168414115906, -0.36751383543014526, -0.22992607951164246, 0.3577767014503479, 0.23658551275730133, 0.04776742681860924, 0.8398741483688354, 1.0919349193572998, -0.056436099112033844, 0.058516550809144974, 0.17465054988861084, 0.33830979466438293, 0.16385215520858765, -0.3766063153743744], [0.23541587591171265, 0.006857645697891712, -0.5139219760894775, 0.3199734091758728, 0.43711087107658386, -0.4493759572505951, -0.8335769176483154, 0.2798067033290863, -0.3200168311595917, 0.08086959272623062, 0.345799058675766, -0.9902533292770386, -4.3438639640808105, -0.8296650052070618, -0.2650981843471527, 0.6063270568847656, -0.2101181298494339, 0.37164419889450073, 0.1868794709444046, -0.0251771192997694, -0.8719247579574585, -0.45717015862464905, -0.07729969173669815, 0.7235570549964905, -0.03296859562397003, -0.2436240017414093, 0.19806155562400818, 0.5011579394340515, 0.15604552626609802, 0.7374615669250488, 1.1475390195846558, -0.07177317887544632, 0.171022430062294, 0.4789133071899414, 0.18276852369308472, -0.018070250749588013, 0.25569459795951843, 0.14021050930023193, 0.01684732735157013, -2.9987268447875977, -0.26279217004776, -0.3469538390636444, -0.15667681396007538, 0.03932837024331093, -0.02829928509891033, 0.4270453453063965, 0.15448589622974396, 0.2548449635505676, 0.0567142479121685, 0.09831059724092484, 0.004823228809982538, -0.30354127287864685, 0.3402597904205322, 0.836786687374115, 0.2503695785999298, -1.3505303859710693, 0.3863579034805298, -2.537497043609619, 0.44247114658355713, -1.3147920370101929, 0.023222528398036957, -0.8992442488670349, -0.2767914831638336, -0.15591159462928772], [-0.04181070998311043, -0.006974658463150263, 0.12998466193675995, 0.3204478919506073, -0.04548604413866997, -0.8570943474769592, 0.38027656078338623, -0.15399706363677979, -0.12220094352960587, 1.060037612915039, 0.23965272307395935, 0.20577503740787506, 0.24113376438617706, 0.0658981129527092, -0.07465721666812897, 0.29096293449401855, 0.5438364148139954, -0.05972008779644966, -0.08702241629362106, 0.03394510969519615, -0.04569390416145325, 0.4862290620803833, -0.11632068455219269, -0.4103471040725708, 0.09238646924495697, 0.06670671701431274, -0.6720484495162964, 0.7959255576133728, 0.34819114208221436, 0.3217925429344177, 1.0808204412460327, 0.30723869800567627, 0.7589759826660156, 0.18746159970760345, 0.30484282970428467, 0.5739872455596924, -0.08430276811122894, 0.18439313769340515, -0.46827033162117004, 0.1398204118013382, -0.03710933029651642, -0.4549158811569214, 0.8170810341835022, -0.18357397615909576, -0.0777423158288002, -0.3266308903694153, -0.12407068908214569, -0.3452131152153015, -0.3371458649635315, 0.08149071782827377, -0.014294853433966637, 0.26722854375839233, -0.3933420777320862, 0.2374701201915741, 0.12834952771663666, -0.3013637959957123, -0.11429836601018906, 0.6801364421844482, 0.25644898414611816, 0.055644966661930084, -0.2263031303882599, 0.16212090849876404, 0.08767382055521011, 0.09543152153491974], [0.27030354738235474, 0.014871514402329922, 0.06381301581859589, -1.1951377391815186, 0.02094416506588459, 0.48970121145248413, -0.22575625777244568, 0.11221511662006378, -0.010953111574053764, -0.16331754624843597, 0.18464264273643494, -0.2147892862558365, -0.09603594243526459, 0.39292338490486145, 0.31821757555007935, -0.20825782418251038, -0.22143025696277618, 0.13561441004276276, -0.35581034421920776, 0.017047064378857613, 0.09738828241825104, 0.05618405342102051, 0.5581480264663696, -0.6454556584358215, -0.5111120343208313, 0.06779816001653671, 0.30712416768074036, 0.1738164722919464, -0.7356559634208679, -0.13522489368915558, -0.1310361921787262, -0.3465927839279175, -0.0008097331156022847, -0.06480839848518372, 0.1681632399559021, 0.02692072093486786, 0.16053874790668488, 0.5639482736587524, 0.46554288268089294, 0.307857871055603, 0.37336665391921997, 0.5019804239273071, -0.26464542746543884, -0.05733998492360115, 0.2458300143480301, -0.9457061290740967, 0.038239289075136185, -0.3891375660896301, 0.12916916608810425, -0.040009044110774994, -0.0020894543267786503, 0.09682085365056992, -0.024412132799625397, -0.3948344588279724, 0.12697401642799377, 0.07052092254161835, 0.1424117386341095, 1.2168210744857788, -0.6842851042747498, -0.9973275065422058, 0.10900785773992538, 0.49577561020851135, -0.6757689118385315, 0.6832454800605774], [0.18075348436832428, -0.018014026805758476, 0.025939874351024628, 0.01082666963338852, -1.0002646446228027, -0.12584978342056274, 0.17229047417640686, 0.060458458960056305, -0.14193470776081085, -6.151904106140137, -0.6160591840744019, 0.07495570927858353, -0.2090521901845932, 0.05650914087891579, 0.10552079975605011, -0.02035342901945114, 0.060081806033849716, -0.6325421929359436, 0.48750510811805725, -0.028007984161376953, -0.4289780259132385, 0.273820161819458, -0.056630320847034454, 0.131568044424057, -0.04050508141517639, 0.6388915777206421, 0.09861128032207489, 0.22873282432556152, 0.06814459711313248, -0.3731488883495331, 0.2763577699661255, -0.2568696439266205, -0.7849966883659363, 0.06402667611837387, 0.2206100970506668, 0.163194477558136, 0.07214124500751495, 0.132234588265419, 0.09427415579557419, 0.1261768490076065, -0.19238299131393433, 0.42767971754074097, -0.553105354309082, 0.0837450921535492, -0.2462766468524933, 0.3902600109577179, 0.05557802692055702, 0.5356030464172363, -0.2381897121667862, 0.0904034897685051, -0.02569040283560753, 0.3142944574356079, 0.31560632586479187, 0.46477973461151123, -1.652360200881958, 0.2544185221195221, 0.8367187976837158, -0.003448754083365202, 0.13502949476242065, -0.021543078124523163, -0.03693099319934845, 0.3896215558052063, 0.07304174453020096, 0.27218934893608093], [0.18287862837314606, 0.001745999208651483, 0.5275198221206665, -3.783050537109375, 0.047657281160354614, -0.1337873637676239, 0.1932874470949173, 0.04581088945269585, 0.35779663920402527, -0.5824992060661316, -2.0038504600524902, -0.10419724136590958, 0.002476038411259651, -0.6425836086273193, 0.346218466758728, 0.17370004951953888, -0.08783479034900665, -0.0023077293299138546, -0.7111215591430664, -0.004557849373668432, 0.1976819783449173, -0.5101940631866455, 0.07209444791078568, -0.42913225293159485, -0.5552804470062256, -0.4291897118091583, 0.6868263483047485, -0.5723090171813965, -0.5108163952827454, -0.10756497085094452, 0.1440059393644333, 0.5649280548095703, 0.7078359723091125, 0.009815971367061138, 0.2560200095176697, 0.0065986099652945995, 0.3933217227458954, 0.7438446283340454, 0.20059113204479218, -0.49357369542121887, -0.46762123703956604, 0.21097487211227417, 0.36351722478866577, -0.08016697317361832, 0.7789890766143799, -0.3242817223072052, -0.16306032240390778, 0.06086808815598488, 0.37508097290992737, 0.28348660469055176, 0.007630582898855209, 0.3001028001308441, 0.29062944650650024, -0.027973884716629982, -0.8627228140830994, 0.16886386275291443, -0.04417978599667549, -2.3296475410461426, -0.253528892993927, 0.01747511327266693, 0.2664038836956024, -0.40422481298446655, -0.4910285174846649, -0.39170408248901367], [0.2537432312965393, 0.03955741226673126, -0.22954681515693665, -0.21620874106884003, 1.2499982118606567, 0.0036806263960897923, -0.11615227162837982, 0.40208062529563904, 0.538345456123352, 0.25590208172798157, -0.03300928324460983, 0.5368615388870239, -0.20712582767009735, 0.019779693335294724, 0.6267001032829285, 0.3294534683227539, 0.15282806754112244, 0.16612917184829712, -0.5713148713111877, -0.02953716740012169, 0.48812800645828247, -0.36832356452941895, -0.036340828984975815, 0.07044494152069092, -0.20703743398189545, 0.2587721049785614, -0.6816124320030212, -0.5480753779411316, -0.2102869749069214, -0.5209704041481018, -0.02775365114212036, -0.10942389070987701, -0.20527610182762146, 0.4461252689361572, -0.13301904499530792, 0.3665165305137634, 0.3959328234195709, -1.3926501274108887, 0.5357042551040649, -0.6248042583465576, -0.5059319138526917, -0.1568380892276764, 0.4448399245738983, -0.022618507966399193, 0.7060667872428894, -0.16619476675987244, 0.16554634273052216, -0.5122900009155273, 0.3568804860115051, 0.42905116081237793, -0.031751856207847595, 0.0161549374461174, 0.28409528732299805, 0.5049964189529419, 0.041963957250118256, 0.18028026819229126, -0.012073632329702377, -0.19890902936458588, -0.2620725631713867, 0.324823796749115, 0.7614271640777588, -0.46487343311309814, -0.04847341403365135, -0.27743110060691833], [-0.023049576207995415, 0.029717737808823586, -0.018190113827586174, -0.00713364826515317, -0.04699702188372612, -0.005028675310313702, -0.0030375446658581495, -0.03949829563498497, -0.008257470093667507, 0.008877639658749104, -0.04318046197295189, -0.05344182252883911, -0.011097281239926815, -0.037390727549791336, -0.008127241395413876, 0.015118393115699291, 0.012365283444523811, -0.04849765822291374, 0.03255385532975197, 0.02138790860772133, -0.03987855464220047, -0.025067247450351715, -0.03456924483180046, -0.003923872951418161, -0.024520281702280045, 0.0281832255423069, -0.009726877324283123, 0.026898330077528954, -0.0487930104136467, 0.019878046587109566, -0.01453955564647913, -0.02684694342315197, -0.04093147814273834, -0.030540332198143005, -0.03363395482301712, 0.01350504718720913, -0.01997375674545765, 0.025236064568161964, 0.0005823675310239196, -0.021971751004457474, -0.03454579785466194, -0.03521972522139549, -0.037279706448316574, -0.03320963308215141, -0.0030670096166431904, -0.01611926406621933, -0.020838195458054543, -0.031186623498797417, -0.031171435490250587, 0.02324879914522171, -0.01789180189371109, 0.0015958140138536692, -0.0001430014963261783, -0.04423394799232483, -0.009269509464502335, -0.0171474851667881, -0.045916635543107986, -0.03346937149763107, 0.0032858082558959723, -0.014507732354104519, 0.0010343006579205394, -0.051327090710401535, -0.0315130315721035, -0.004634171258658171], [0.019586049020290375, -0.019246593117713928, -0.031056566163897514, -0.01689761132001877, -0.023632753640413284, -0.03262430056929588, -0.006987294182181358, 0.027654316276311874, -0.014661945402622223, -0.026966601610183716, 0.006467568688094616, 0.025290144607424736, -0.00476978300139308, 0.01176668331027031, -0.010298708453774452, 0.027598602697253227, 0.017014173790812492, -0.022194162011146545, -0.001243055216036737, -0.0007609294261783361, -0.03935595601797104, -0.019671622663736343, 0.008328129537403584, 0.014402661472558975, 0.009316407144069672, -0.035455942153930664, -0.01731247827410698, 0.021919632330536842, 0.020734915509819984, -0.03575039282441139, 0.018850315362215042, -0.0016841725446283817, 0.014690650627017021, -0.0025850117672234774, -0.004955955781042576, -0.009801902808248997, -0.024594873189926147, 0.02611452154815197, -0.027077440172433853, -0.010485143400728703, 0.019126007333397865, 0.009587673470377922, -0.0006690098089165986, -0.02220980077981949, -0.02212974987924099, 0.004963085055351257, -0.022841837257146835, -0.02922368049621582, -0.00874378252774477, -0.030057383701205254, 0.035304587334394455, -0.007362652570009232, 0.004898518789559603, -0.035365112125873566, -0.021178603172302246, -0.0021403366699814796, -0.027131127193570137, 0.0007900407072156668, -0.03545262664556503, -0.029156705364584923, -0.03121311217546463, -0.01450380776077509, -0.019338365644216537, -0.008256434462964535], [0.0883115902543068, 0.004439104814082384, -1.7699074745178223, -0.1629873514175415, -0.4494563639163971, -0.2538508176803589, -0.46856817603111267, -0.12426834553480148, 0.4156397581100464, -1.6885325908660889, -0.6510722041130066, -0.277846097946167, 0.3959241509437561, -0.2710755169391632, 0.39423173666000366, 0.5427881479263306, 0.027021996676921844, 0.6425746083259583, 0.2644311189651489, 0.03684135898947716, 0.0793701708316803, -0.2954310476779938, 0.4103294014930725, -0.3421855568885803, 0.1256132274866104, -1.1268976926803589, 0.18704912066459656, -0.4909907281398773, 0.18464601039886475, 0.4848010241985321, 0.7618153691291809, 0.212638720870018, 0.25437813997268677, 0.26380741596221924, -0.09238941967487335, 0.571153998374939, 0.28307536244392395, 0.27176982164382935, -0.48287007212638855, 0.9169614315032959, 0.2640766501426697, 0.7562328577041626, 0.002405629027634859, -0.21392308175563812, 0.21881529688835144, 0.19112235307693481, -0.2604862451553345, 0.5697093605995178, 0.1400652676820755, 0.7339016795158386, 0.029080811887979507, -0.21757206320762634, -0.5467675924301147, -0.42008650302886963, -0.504392683506012, -0.2114955186843872, -0.4152488112449646, -0.34944847226142883, 0.1787620186805725, -0.9273002743721008, 0.005238761194050312, -0.022129837423563004, 0.06931985169649124, -0.01347530446946621], [-0.000827725394628942, -0.02003859169781208, -0.2931586802005768, -0.21777400374412537, 0.37018439173698425, -0.13066847622394562, -0.12068641185760498, 0.2547238767147064, 0.33517342805862427, -1.9936857223510742, 0.20596006512641907, 0.5361486673355103, -0.1747199445962906, 0.10816006362438202, 0.5202583074569702, 0.38170620799064636, 0.029778389260172844, -0.07161653786897659, -0.4141581952571869, 0.016556257382035255, 0.5055468678474426, -0.10075634717941284, -0.5716869831085205, 0.3268480598926544, -0.02422119490802288, 0.5236496329307556, -0.7004072666168213, -0.14341548085212708, -0.051413990557193756, -0.026107514277100563, -0.4474884271621704, -0.133683979511261, 0.4398140609264374, 0.1585637331008911, 0.1481277197599411, 0.2242249846458435, 0.5590336322784424, -0.01985813118517399, -0.3531529903411865, -0.10499381273984909, -0.05850547179579735, 0.2580331861972809, -0.03340461850166321, 0.3252667188644409, 0.5541691780090332, 0.13525943458080292, 0.3150344789028168, -0.1570000946521759, -0.0004843359347432852, 0.23008836805820465, 0.04296664893627167, 0.5796289443969727, 0.5784863233566284, 0.20899690687656403, 0.20344623923301697, 0.6160991191864014, -0.6127597093582153, -0.5185288190841675, 0.003096036845818162, -0.8423171043395996, 0.46690237522125244, -0.2167721390724182, 0.13229607045650482, 0.06748136878013611], [-0.12295923382043839, 0.008568827994167805, -0.07397313416004181, 0.09268447756767273, -0.8857050538063049, -0.0986112654209137, -0.20664629340171814, 0.17334496974945068, -0.037046805024147034, 0.24883723258972168, 0.8289972543716431, 0.0726470947265625, 0.25631478428840637, 0.5421655178070068, 0.30376136302948, -1.0989396572113037, 0.0005812471499666572, 0.20522534847259521, 0.42404869198799133, -0.007140019908547401, -0.4284338057041168, 0.6428408026695251, -0.467890202999115, -0.7754414677619934, -0.06018591299653053, -1.1392357349395752, 0.27726250886917114, -0.09917427599430084, 0.4501030445098877, 0.6145269274711609, -0.5055670738220215, 0.06785503774881363, -0.014954252168536186, 0.13440370559692383, 0.36570969223976135, -0.07951933145523071, 0.6545542478561401, -0.3971913456916809, -0.8605064153671265, -2.5507376194000244, 0.3837311267852783, 0.264169842004776, -0.19183683395385742, -0.6378396153450012, 0.001600460964255035, -0.48451492190361023, 0.21751829981803894, 0.2928307354450226, -0.7291529774665833, 0.6437627673149109, -0.005006205756217241, -0.023467566817998886, -0.40433767437934875, 0.20227666199207306, -1.1729860305786133, 0.09650593996047974, 0.48521992564201355, -0.39312559366226196, 0.35512953996658325, 0.03512819483876228, 0.05288480222225189, 0.21296492218971252, 0.03786259889602661, 0.03269645944237709], [-0.049602750688791275, -0.0030620605684816837, -0.05910150706768036, -0.03855026513338089, -0.0038245338946580887, -0.028823059052228928, -0.06846792995929718, -0.010362562723457813, -0.007033725269138813, 0.006555142346769571, -0.024611547589302063, -0.026897519826889038, -0.042662613093853, -0.025990720838308334, -0.017505398020148277, -0.03549567610025406, -0.04728086292743683, -0.08800860494375229, -0.013716081157326698, 0.029609955847263336, -0.02134445495903492, -0.04132148623466492, -0.004629264120012522, -0.011689753271639347, -0.021889645606279373, -0.0360434465110302, -0.0175175741314888, -0.031237628310918808, 0.009573519229888916, -0.010852261446416378, 0.010131699964404106, -0.023445451632142067, -0.035960644483566284, -0.04042135551571846, -0.050686128437519073, -0.07236555218696594, -0.05186133459210396, 0.013568195514380932, -0.027046222239732742, -0.023605255410075188, -0.03426482900977135, -0.04528602957725525, -0.011641860008239746, 0.01190237607806921, -0.029295990243554115, -0.04930860176682472, -0.027862248942255974, -0.032804347574710846, -0.05421840399503708, -0.027256397530436516, -0.010779942385852337, -0.04314296692609787, -0.03839733079075813, 0.02541082538664341, -0.01931086555123329, -0.05134265497326851, -0.0286196768283844, -0.0216634850949049, 0.0032041899394243956, -0.03755206614732742, 0.012980412691831589, -0.02062097191810608, -0.0004155630886089057, 0.008665290661156178], [-0.05112558603286743, -0.00380472163669765, 0.12831911444664001, -0.3375599980354309, 0.07178965210914612, 0.024525998160243034, 0.04111173748970032, 0.22432345151901245, 0.6244921684265137, 0.6616555452346802, 0.17518611252307892, 0.05949883535504341, 0.595313310623169, -0.09313376992940903, 0.058356598019599915, 0.8611752986907959, -0.14990659058094025, 0.37418559193611145, 0.32084232568740845, -0.02476959116756916, -0.4603661000728607, 0.2823818624019623, 0.02500159665942192, 0.30279114842414856, 0.14161790907382965, 0.32857590913772583, 0.028147252276539803, 0.4035528004169464, 0.01298296358436346, -0.048338621854782104, 0.5800211429595947, -0.2633580267429352, -0.21909046173095703, -0.3654903173446655, -0.013628276064991951, 0.12838034331798553, -0.036925170570611954, 0.03328818827867508, 0.28737884759902954, 0.048272594809532166, -0.2948090136051178, -0.049294717609882355, -0.04743092879652977, 0.26219671964645386, -0.4605536460876465, -0.8865113854408264, -0.6074569821357727, -0.6436899304389954, 0.2003595530986786, 0.35919189453125, -0.015641679987311363, -0.3248240053653717, 0.5274735689163208, -0.10549155622720718, -0.6118068695068359, 0.3748224973678589, 0.18952211737632751, 0.05096200481057167, 0.4547460675239563, -0.3550568222999573, -0.15886308252811432, -0.0507192462682724, -0.13610810041427612, 0.06771419942378998], [0.2514280378818512, -0.015162861905992031, 0.012505077756941319, 0.291402667760849, -0.11260071396827698, 0.3068053126335144, -0.18623454868793488, 0.05896065756678581, -0.3296809196472168, 0.28849339485168457, -0.3849211633205414, -0.13154490292072296, 0.1817992627620697, 0.00462692603468895, -0.2574601173400879, -0.2913512885570526, 0.30179229378700256, -2.0238165855407715, -0.08401631563901901, 0.025186698883771896, -0.10771151632070541, 0.08142705261707306, -0.20355476438999176, -0.030614098533988, 0.10378629714250565, 0.22274717688560486, 0.3124847710132599, 0.1673073172569275, 0.46996447443962097, 0.11237749457359314, 0.3641478419303894, 0.13577501475811005, 0.10721024870872498, 0.3108743131160736, -0.1319415271282196, -0.12153854221105576, 0.25246182084083557, 0.049861013889312744, -0.3541616201400757, 0.1992899626493454, 0.59514319896698, -0.26908382773399353, -0.4544767737388611, 0.2999306917190552, 0.2244126945734024, 0.7195521593093872, -0.25779902935028076, 0.12178230285644531, 0.1598844826221466, 0.29785749316215515, -0.035458676517009735, 0.27250534296035767, -0.24597224593162537, -0.08397648483514786, -0.2901507318019867, -0.5604996681213379, 0.36746835708618164, -0.3908803462982178, 0.20696772634983063, -0.19222784042358398, 0.1402755230665207, 0.6530693173408508, 0.04714549332857132, -0.17996250092983246], [-0.13841408491134644, -0.021756736561655998, -0.3568691909313202, -0.3331502676010132, 0.4435065984725952, 0.5854161977767944, -0.12730734050273895, 0.4811245799064636, 0.05973924323916435, 1.1178512573242188, 0.2598148286342621, -0.3730687201023102, 0.2827298045158386, -0.10413313657045364, -0.1780809611082077, -0.12591636180877686, -0.10332920402288437, 0.4706215262413025, -0.423697829246521, 0.017207220196723938, -0.16369298100471497, -0.09471512585878372, -0.6763237714767456, 0.11297402530908585, 0.18079401552677155, -0.06270701438188553, 0.4936037063598633, -0.202001690864563, 0.07889804244041443, -0.0007448293035849929, -1.030731439590454, 0.20448561012744904, 0.3535461723804474, -0.1646612137556076, -0.4277983605861664, -0.1535603404045105, -0.10774847865104675, 0.5082154870033264, 0.21606844663619995, 0.6359016299247742, -0.0035526123829185963, -0.014770053327083588, 0.13411837816238403, 0.2411494255065918, 0.05637406185269356, -0.08871547132730484, -0.0055275363847613335, -0.13101309537887573, 0.06826914846897125, -0.05548335984349251, 0.010546429082751274, -0.4766383469104767, 0.513910174369812, -0.09103494882583618, -0.030254052951931953, 0.19327570497989655, -0.7359429597854614, 1.6776413917541504, -0.36472341418266296, 0.46296289563179016, 0.4369949698448181, -0.10549386590719223, 0.01751622185111046, -0.17431044578552246], [0.05196373537182808, 0.029036598280072212, -0.545024573802948, -0.48936033248901367, -0.8680749535560608, -0.7776734828948975, 0.4150572717189789, -0.13921454548835754, 0.07096853852272034, -0.8474588990211487, -0.16324535012245178, 0.313178151845932, -0.6022398471832275, 0.11756716668605804, 0.5679983496665955, -0.1151876449584961, 0.2333012968301773, 0.1977720856666565, 0.08061250299215317, 0.014006612822413445, 0.28386715054512024, 0.6426534652709961, -0.4923875331878662, 0.0947057232260704, 0.047213952988386154, 0.25817379355430603, -0.6403588652610779, -0.25215139985084534, 0.4126487970352173, -0.03369060903787613, -0.3156847059726715, 0.2449055165052414, -0.012214145623147488, -0.3682117760181427, 0.4044223427772522, 0.17542536556720734, 0.5924327373504639, 0.15003836154937744, -0.2987827658653259, -0.18216797709465027, -0.21848662197589874, -0.06443112343549728, -0.2789169251918793, 0.3099461495876312, 0.5309554934501648, -0.43867772817611694, 0.0381428562104702, -0.6841050982475281, 0.08389079570770264, 0.1964607834815979, -0.017433255910873413, -0.05420435220003128, 0.023720446974039078, 0.26726722717285156, 0.2883877754211426, 0.21513770520687103, 0.9357998371124268, -0.26368358731269836, -0.14653152227401733, -0.1666417121887207, 0.5389488339424133, -0.16601455211639404, -0.20414461195468903, 0.059320371598005295], [0.0646686926484108, -0.011067328043282032, 0.1639426201581955, 0.7461330890655518, -0.47692495584487915, -0.09036332368850708, -0.1077381819486618, -0.21951957046985626, -0.047853223979473114, -0.2150157392024994, 0.09476815909147263, -0.5348410606384277, -0.1993243396282196, -0.18761667609214783, 0.021175192669034004, 0.04273923113942146, 0.3137909173965454, -0.32945746183395386, -0.11046667397022247, 0.0329015739262104, -0.5398796796798706, -0.07504002749919891, -0.3909129202365875, -0.016429007053375244, 0.6059052348136902, -0.46516233682632446, 0.02138908952474594, -0.3798028826713562, 0.44392865896224976, 0.7100610136985779, -0.9987522959709167, -0.15489330887794495, 0.21114644408226013, 0.35617250204086304, 0.44546040892601013, 0.2113114297389984, 0.654668927192688, 0.13173480331897736, -0.404021680355072, 0.3346945345401764, 0.29448190331459045, -0.3685987591743469, 0.07438430190086365, 0.07660898566246033, 0.587952733039856, 0.5699061155319214, -0.7573584914207458, -0.8715443015098572, -0.19181916117668152, 0.019582068547606468, -0.023843279108405113, 0.215612530708313, -0.9884865880012512, -0.43655112385749817, -0.4526618719100952, -0.2361762970685959, 0.07255667448043823, 0.5690914392471313, 0.5359687209129333, 0.549361526966095, -0.059990279376506805, 1.038541316986084, 0.6876364946365356, 0.165181502699852], [-0.06920500844717026, 0.023994550108909607, 0.3843303918838501, -0.15763098001480103, 0.6013050675392151, 0.08236964792013168, 0.21876484155654907, -0.15676634013652802, 0.20290885865688324, -1.878568410873413, -0.044662605971097946, 0.05437151715159416, 0.2418729066848755, 0.07225145399570465, 0.5565956830978394, -1.2430756092071533, 0.07562822848558426, -0.22096498310565948, -0.16384711861610413, 0.004715781193226576, 0.15605281293392181, 0.12161019444465637, 0.004498693160712719, -0.10903783142566681, -0.1172458678483963, 0.4705273509025574, 0.6304410099983215, -0.2841591238975525, 0.20680628716945648, -0.17052820324897766, 0.5008983016014099, 0.23564237356185913, -0.06573145091533661, 0.1729145050048828, 0.14739076793193817, 0.5929059982299805, -0.007773161865770817, -0.7796930074691772, -0.34423694014549255, 0.022274194285273552, 0.06935553252696991, -0.6516615748405457, -0.06475658714771271, -0.47396522760391235, 0.5124284625053406, 0.2766573131084442, 0.30936187505722046, -0.16546906530857086, -0.2537026107311249, -0.42645198106765747, -0.0061822752468287945, -0.0014670421369373798, 0.09721957892179489, 0.021406689658761024, -0.19369719922542572, 0.33395490050315857, 1.1600985527038574, -0.5676879286766052, -0.30072692036628723, -0.32029759883880615, 0.6241669654846191, -0.3598495125770569, 0.08630415052175522, 0.0715528130531311], [-0.1459236890077591, 0.025529051199555397, -0.26161670684814453, -0.5319085717201233, -0.9602975845336914, 0.30867794156074524, -0.0942714586853981, 0.4229562282562256, 0.01826385408639908, 0.3816801905632019, 0.012174129486083984, -0.26636072993278503, -0.5817280411720276, 0.2939026951789856, 0.7089105248451233, 0.23398807644844055, -0.262142539024353, -0.2798824608325958, 0.2621069848537445, 0.0018687332049012184, 0.2977762818336487, 0.6781055927276611, 0.028320666402578354, -0.6940502524375916, -0.14461016654968262, 0.022897006943821907, -0.043876487761735916, 0.3419126570224762, 0.13391540944576263, -0.021158486604690552, 0.8288096785545349, -0.163224458694458, 0.03662729263305664, 0.36674821376800537, 0.2655256688594818, -0.21424360573291779, 0.15939781069755554, -0.11333734542131424, 0.14854390919208527, -1.7657194137573242, 0.27066516876220703, 0.3285458981990814, 0.08923295885324478, 0.11879359185695648, 0.029501602053642273, -1.4422401189804077, 0.41906601190567017, -0.14709405601024628, 0.08732947707176208, -0.6080101132392883, -0.009226671420037746, 0.02285374514758587, 0.25791674852371216, -0.15455856919288635, 0.47386518120765686, 0.39539459347724915, 0.2476314753293991, -0.024731216952204704, -0.01764237880706787, -0.2647671699523926, 0.1384861171245575, -0.6041898727416992, -0.16509799659252167, -0.4880810081958771], [-0.11328251659870148, 0.03304344043135643, 0.023195235058665276, -0.06640791893005371, -0.031110715121030807, -0.06232275441288948, 0.025599151849746704, -0.04375127702951431, -0.10190136730670929, -0.01517330203205347, -0.050607044249773026, -0.019640814512968063, 0.03813846409320831, -0.014025880955159664, -0.032037388533353806, -0.11471771448850632, 0.0030621043406426907, -0.052216537296772, -0.008559056557714939, 0.011303124949336052, 0.0033445428125560284, -0.03294428065419197, -0.034083250910043716, 0.009069131687283516, -0.054420240223407745, -0.045500192791223526, -0.09488875418901443, -0.12016871571540833, -0.10307006537914276, -0.023472018539905548, -0.026199648156762123, -0.03682244196534157, -0.029020199552178383, -0.09760066866874695, -0.015029882080852985, -0.021838799118995667, -0.06982846558094025, -0.08237981796264648, -0.0746602863073349, -0.0032651799265295267, -0.022606156766414642, -0.11807271838188171, 0.011862867511808872, -0.06861858814954758, -0.09972322732210159, -0.012536975555121899, -0.0158870667219162, -0.014367504976689816, -0.0323203019797802, -0.058592237532138824, -0.0281288530677557, -0.038335129618644714, -0.08572966605424881, -0.09195772558450699, -0.018997615203261375, 0.034834619611501694, -0.028760051354765892, 0.05912746116518974, 0.0010364234913140535, -0.09925806522369385, -0.06810631603002548, -0.04612782597541809, 0.027789348736405373, -0.03281306102871895], [-0.15634895861148834, 0.023589642718434334, -0.030945483595132828, 0.36779990792274475, 0.4759083390235901, 0.027133705094456673, -0.49501365423202515, 0.37444955110549927, 0.25709831714630127, 0.7344558238983154, -0.10846751928329468, -0.5657127499580383, -0.4130952060222626, -0.39805930852890015, -0.21416907012462616, -0.16386638581752777, -0.4905979633331299, 0.3780359625816345, 0.020276915282011032, 0.01806679368019104, -0.16354124248027802, 0.394507497549057, 1.0483365058898926, -0.5447690486907959, -0.41139012575149536, 0.5795884728431702, 0.1720028817653656, 0.6529548168182373, 0.5632712841033936, -0.10711748898029327, 1.1958353519439697, 0.19038425385951996, 0.2979952096939087, -0.6864422559738159, 0.3506399393081665, -0.051140349358320236, -0.044995199888944626, 0.3166676461696625, 0.3544706106185913, -0.27821600437164307, 0.01922607608139515, 0.29980984330177307, 0.20858755707740784, -0.17677396535873413, 0.02748340368270874, -0.22568805515766144, 0.324153333902359, 0.584760308265686, -0.1726703643798828, -0.025932053104043007, 0.0034035027492791414, -0.3959619402885437, 0.12009834498167038, -0.12280934303998947, -0.0044189328327775, 0.04356779158115387, -1.1532540321350098, 0.20766964554786682, 0.39760178327560425, 0.11874770373106003, 0.24014930427074432, 0.22417357563972473, -0.23022793233394623, 0.18474715948104858], [-0.8679834604263306, 0.014842065051198006, 0.18331611156463623, 0.3400668501853943, -0.25824934244155884, -0.40012413263320923, 0.4766084849834442, 0.1555657833814621, -0.49024534225463867, 0.6205989718437195, 0.4166373312473297, 0.2795816659927368, 0.6489648222923279, 0.46424534916877747, -0.4310583770275116, 0.036745667457580566, 0.5464707016944885, 0.16155663132667542, 0.14593352377414703, -0.013041884638369083, 0.12176653742790222, 0.16152822971343994, 0.6400050520896912, -0.21751375496387482, 0.1318328082561493, -0.7325154542922974, -1.7894396781921387, 0.22871124744415283, 0.2518908679485321, 0.17118173837661743, -0.08316574990749359, 0.08045315742492676, 0.8065305948257446, 0.14715097844600677, 0.1923631727695465, 0.309821218252182, -0.31790220737457275, -0.5189101696014404, -0.14635466039180756, -0.07923783361911774, 0.71211838722229, -0.8004248738288879, 1.3056720495224, 0.19589172303676605, -0.16430118680000305, -0.29197442531585693, 0.1600072681903839, -0.00660860538482666, -0.45304393768310547, -0.6972144842147827, -0.006917649880051613, 0.17436011135578156, -0.3723427653312683, -0.417019248008728, 0.11621561646461487, 0.05531682074069977, 0.6051336526870728, 0.24666106700897217, -0.13161854445934296, 0.40850597620010376, -0.25526314973831177, 0.15185332298278809, -0.044975824654102325, 0.09233208000659943], [-0.3211057186126709, -0.012128425762057304, -0.11432559788227081, 0.9940703511238098, 0.41071608662605286, 0.32561764121055603, 0.16497428715229034, -0.7349111437797546, 0.053058329969644547, 0.6705829501152039, -0.08904609084129333, -0.24556317925453186, 0.8501172065734863, 0.3827577531337738, 0.07622828334569931, -0.4012002944946289, 0.717951238155365, -0.002928577596321702, 0.050475481897592545, -0.006241981405764818, -0.07850177586078644, 0.5818415880203247, 0.18524287641048431, -0.5229136347770691, 0.16985245048999786, 0.07671084254980087, -0.2723563611507416, 0.3324753940105438, 0.22378741204738617, -0.7950747013092041, 0.47253382205963135, 0.3020588457584381, 0.11624182760715485, 0.037293240427970886, 0.46940848231315613, 0.5525631904602051, 0.2696598470211029, 0.267115980386734, -0.40959811210632324, 0.10399191826581955, 0.4396074712276459, 0.3568837642669678, 0.07830624282360077, -0.5211055874824524, -0.1477527618408203, -0.44125932455062866, -0.07641627639532089, -0.8770412802696228, -0.7122780084609985, 0.5758155584335327, 0.030928194522857666, -0.05235496535897255, -1.039600133895874, -0.15065491199493408, -0.274851530790329, -0.2697059214115143, -0.05294011905789375, 1.04168701171875, 0.3036107122898102, 0.43335482478141785, -0.3255242109298706, 0.9109146595001221, 0.05079261213541031, 0.07810420542955399], [-0.06136190891265869, 0.02976016141474247, -0.038907576352357864, -0.018615785986185074, -0.02465585432946682, -0.0010264894226565957, -0.044573068618774414, -0.021842865273356438, -0.014114008285105228, -0.045175790786743164, -0.007953302934765816, -0.03789138421416283, -0.0488324798643589, -0.034834086894989014, -0.022814679890871048, -0.0475209541618824, -0.045526616275310516, -0.014574895612895489, -0.07632703334093094, 0.00837619323283434, -0.03802742063999176, -0.07899149507284164, -0.003791806986555457, 0.005806157365441322, -0.0009180524502880871, -0.02897709421813488, -0.04133317619562149, -0.06449556350708008, -0.03174065798521042, 0.008485035970807076, 0.013018148951232433, -0.054688677191734314, -0.04288334771990776, -0.01833951845765114, -0.05364057421684265, -0.030837366357445717, -0.03178331255912781, -0.03219345584511757, -0.03689964488148689, -0.01998884789645672, -0.04052441567182541, -0.018124382942914963, -0.03994636610150337, -0.016440220177173615, -0.052807923406362534, 0.03722447156906128, -0.0398227721452713, -0.02031387947499752, -0.05518414452672005, -0.041646406054496765, -0.022446028888225555, -0.039340484887361526, -0.0022430461831390858, -0.05036480724811554, -0.023682983592152596, -0.01987357810139656, -0.03419070690870285, -0.018288930878043175, -0.017079677432775497, 0.012605635449290276, -0.02483505941927433, 0.020239654928445816, -0.013989916071295738, 0.025159107521176338], [0.36874502897262573, 0.01022005919367075, -0.3298881947994232, 0.09236568957567215, 0.30436182022094727, -0.07479402422904968, 0.08030852675437927, 0.11046763509511948, 0.4361650049686432, 0.04863986372947693, -0.7690216302871704, 0.12862777709960938, 0.7089693546295166, -0.02276201918721199, 0.23883843421936035, -0.14407101273536682, -0.24195927381515503, 0.7554970979690552, 0.2096664160490036, -0.038612525910139084, -0.30011576414108276, 0.2268526405096054, 1.0946425199508667, -0.5463182926177979, 0.1270245611667633, -1.4868677854537964, -0.15361756086349487, -0.17045150697231293, 0.2096073180437088, -0.1812514364719391, -0.07055290043354034, 0.26243528723716736, -0.25119537115097046, 0.03385158255696297, 0.4605981111526489, 0.0734422355890274, 0.4845189154148102, -0.12205721437931061, -0.551098108291626, 0.20850545167922974, 0.7930731773376465, 0.1085946261882782, -0.83953458070755, -0.1081298440694809, -0.058164309710264206, 0.11684578657150269, -0.4521061182022095, 0.4541950821876526, 0.28495708107948303, -0.5359340310096741, 0.0013394902925938368, 0.283895343542099, -0.06386121362447739, 0.05165198817849159, -0.5460278987884521, 0.2873201072216034, -0.7897431254386902, 0.05338611453771591, 0.12520946562290192, -0.4477681517601013, 0.21724717319011688, -0.11511532962322235, 0.12616603076457977, 0.011805069632828236], [0.44084110856056213, -0.01007787324488163, -0.051457762718200684, 0.4378229081630707, -0.0978178158402443, 0.8319387435913086, -0.34097784757614136, -0.13288173079490662, 0.04521683230996132, 0.08532150089740753, 0.529956042766571, 0.29204660654067993, 0.126725971698761, 0.09252793341875076, -0.08798561245203018, 0.2365739941596985, -0.6882688999176025, 0.47724631428718567, -0.16872918605804443, -0.0018093707039952278, 0.3389040231704712, -0.3966136574745178, -0.17194868624210358, -1.4051061868667603, -0.48459404706954956, -0.7853567600250244, 0.7427011728286743, 0.09179593622684479, -0.2818332612514496, 0.5910694599151611, -1.4061625003814697, 0.003780529834330082, 0.007478422950953245, -0.08117672055959702, -0.5241339802742004, -0.2684282958507538, -0.2603429853916168, -0.3700067400932312, 0.5816689133644104, -0.2521169185638428, -2.1797306537628174, -0.05077091231942177, -0.4860982596874237, -0.09378284960985184, 0.3439350724220276, -0.03439034894108772, 0.47574618458747864, 0.2115703821182251, 0.40892294049263, 0.3456017076969147, -0.01662486605346203, -0.10446000099182129, 0.8434329032897949, 0.5974695086479187, 0.3867807388305664, 0.3684130907058716, 0.02018630877137184, -0.6474149227142334, -0.11911003291606903, -0.4278716444969177, 0.32376644015312195, -0.9855495691299438, -0.20716381072998047, -0.15538856387138367], [0.01544968318194151, 0.021250491961836815, -0.043725937604904175, -0.007333407178521156, -0.013169389218091965, -0.0164322629570961, -0.011117326095700264, 0.003742595436051488, -0.03396333381533623, 0.03464387357234955, -0.04557136073708534, 0.004642489366233349, -0.05758056789636612, -0.03925023600459099, 0.00035671197110787034, -0.04916758835315704, -0.0585610456764698, 0.002736300230026245, 0.01144428551197052, 0.020157011225819588, -0.02913021296262741, -0.014727383852005005, -0.0339697040617466, -0.03171950578689575, -0.010929714888334274, -0.024321911856532097, -0.0013573848409578204, 0.02573881484568119, -0.028896257281303406, -0.03745197877287865, -0.03761334344744682, -0.027773501351475716, -0.04377398267388344, 0.0026625311002135277, -0.006416777614504099, -0.071333147585392, -0.04241133853793144, -0.02213706076145172, -0.04152948781847954, -0.04672349989414215, -0.014767874963581562, -0.03234044089913368, -0.010401535779237747, 0.003300738288089633, -0.01743917539715767, -0.04743185266852379, -0.03286083787679672, -0.029035089537501335, 0.017926039174199104, -0.010058344341814518, -0.024600772187113762, -0.02471705712378025, -0.018037943169474602, -0.03511253744363785, -0.014724782668054104, -0.035567108541727066, -0.024812785908579826, -0.015028326772153378, -0.01426474004983902, -0.03341306000947952, 0.01461922749876976, -0.0426630824804306, -0.021534912288188934, -0.015434798784554005], [-0.05265866965055466, -0.005781019106507301, -0.01786757819354534, -0.05732806771993637, -0.02470357157289982, -0.05666818469762802, -0.03203487768769264, -0.025246378034353256, -0.01701674982905388, -0.02815627120435238, -0.07281257212162018, -0.038410887122154236, 0.007351487409323454, -0.0264718197286129, -0.06461159884929657, -0.09034937620162964, -0.0505523644387722, -0.016389191150665283, -0.09803259372711182, 0.001691369223408401, -0.07781992107629776, -0.08965609967708588, -0.02112685516476631, -0.042921002954244614, -0.07556280493736267, -0.0422406904399395, -0.05404996871948242, -0.010923290625214577, -0.046176377683877945, -0.04861566051840782, -0.06934948265552521, -0.0640782043337822, -0.06186797842383385, -0.09840699285268784, -0.06820973008871078, -0.005198508035391569, -0.04579763859510422, -0.0799083411693573, 0.019448580220341682, -0.06513696163892746, -0.006774276494979858, -0.004877553787082434, -0.06881875544786453, -0.024625618010759354, -0.08015398681163788, -0.02113553322851658, -0.03155157342553139, -0.007290140260010958, -0.07318149507045746, -0.06961081922054291, -0.03333408758044243, -0.017879804596304893, -0.05778512731194496, 0.025755420327186584, -0.08909277617931366, -0.058894313871860504, -0.028256889432668686, -0.029253121465444565, -0.0855063870549202, -0.05058896541595459, -0.08262236416339874, -0.09814774990081787, -0.02718348428606987, -0.1203022450208664], [0.036452893167734146, 0.006997435819357634, -1.0096890926361084, 0.18907123804092407, -0.10221206396818161, 0.3533485531806946, -0.9367890357971191, 0.04517432674765587, 0.4597774147987366, 0.8335717916488647, -0.6763253211975098, 0.15684126317501068, -0.8881997466087341, -0.20438441634178162, 0.09933584928512573, 0.14871375262737274, -0.3884972631931305, 0.5061018466949463, 0.20154498517513275, 0.0034652110189199448, -0.24122045934200287, -0.12702928483486176, 0.22611956298351288, 0.0389971062541008, -1.8251776695251465, 0.22232739627361298, 0.558630108833313, 0.2625477612018585, -0.40732213854789734, 0.22999721765518188, 0.5929534435272217, -0.7772793173789978, -0.7474927306175232, 0.07626917958259583, -0.4696434438228607, -0.47652319073677063, 0.24045950174331665, -0.43814486265182495, -0.08509811758995056, -0.22550159692764282, -0.22977930307388306, 0.4728037714958191, 0.12257307767868042, 0.3628489375114441, 0.0027462178841233253, 0.032872073352336884, -0.12381617724895477, 0.0329955630004406, 0.012968944385647774, 0.055198002606630325, -0.01614997908473015, -0.1308077871799469, 0.5272883176803589, 0.2292490154504776, -0.47835224866867065, -0.1046682745218277, 0.8828220367431641, 0.30140984058380127, 0.10749350488185883, -0.16981099545955658, -0.1915632039308548, -0.26893383264541626, -0.33915138244628906, 0.32024121284484863], [-0.010498262010514736, -0.0043343412689864635, -0.023493610322475433, -0.06787338107824326, 0.00441222358494997, 0.04735269024968147, -0.05701363459229469, -0.0305978711694479, -0.033871304243803024, 0.05100899562239647, -0.05281207710504532, -0.01829943247139454, -0.005088855512440205, -0.029903873801231384, -0.06143952161073685, -0.023319091647863388, -0.04085483029484749, 0.05161788687109947, -0.028754040598869324, -0.010504025965929031, -0.027159469202160835, -0.02647247351706028, -0.03802889958024025, -0.05570477247238159, -0.016428636386990547, -0.013300866819918156, -0.023030895739793777, -0.05952459201216698, -0.05609442666172981, -0.06783647835254669, -0.05567948892712593, -0.038799677044153214, -0.06596032530069351, -0.036258798092603683, -0.007983793504536152, -0.04832674190402031, 0.060324691236019135, -0.06386782974004745, -0.01862877607345581, -0.008859978057444096, 0.009692215360701084, 0.0011933142086490989, -0.03989382088184357, -0.018501020967960358, -0.0295399222522974, 0.024722367525100708, -0.01932750642299652, -0.026954442262649536, -0.02879033237695694, -0.0041924165561795235, 0.019078264012932777, -0.009876151569187641, -0.024715309962630272, 0.0008483662968501449, 0.011605383828282356, -0.03131169080734253, 0.00902992021292448, -0.0021981713362038136, -0.023080484941601753, -0.05264658480882645, -0.02121707983314991, -0.00864197127521038, -0.06464330106973648, -0.010925867594778538], [0.018810873851180077, -0.03103465400636196, 0.38089287281036377, 0.07685350626707077, -1.123236894607544, -0.20388242602348328, -0.4034154415130615, -0.1674879938364029, 0.0524868369102478, -0.802057147026062, 0.6438242793083191, -0.8777222633361816, -0.5238743424415588, 0.1586146056652069, -0.06940668076276779, -0.8428876996040344, -0.25773972272872925, 0.23368225991725922, -0.5463387966156006, -0.002150681335479021, -0.5937268137931824, -0.19281163811683655, 0.10100444406270981, -0.807506263256073, -0.06274209916591644, 0.28101134300231934, 0.2997429072856903, -0.19775396585464478, -0.012552989646792412, -0.10882972180843353, -0.03384602069854736, 0.36073869466781616, 0.15197718143463135, 0.07244617491960526, 0.1139393001794815, -0.09625151753425598, 0.0050910040736198425, 0.626177966594696, 0.732435941696167, -1.8427451848983765, 0.24902300536632538, 0.06821125000715256, 0.7297874689102173, 0.06166454777121544, 0.5828517079353333, -0.13302721083164215, -0.7971199750900269, -0.08647709339857101, 0.3723798990249634, 0.17074082791805267, -0.026224806904792786, 0.0058577279560267925, -0.11283958703279495, 0.010488621890544891, 0.3392580449581146, -0.21905508637428284, -0.047838352620601654, 0.4747084081172943, 0.2354392111301422, 0.9906817674636841, 0.18217328190803528, -0.22500215470790863, 0.018365472555160522, -0.08004894852638245], [-0.06016938015818596, -0.03623303398489952, -0.022389883175492287, -0.027121195569634438, -0.03088230825960636, -0.024748601019382477, -0.028427371755242348, -0.07504193484783173, -0.03345146030187607, -0.010480999015271664, -0.040342554450035095, -0.019990496337413788, 0.005250040907412767, -0.06056251376867294, -0.02774902619421482, 0.0004960934165865183, -0.013705532997846603, -0.048953279852867126, -0.0298695657402277, -0.017264897003769875, 0.004718751646578312, -0.020791826769709587, -0.012421848252415657, -0.05876876413822174, -0.020483968779444695, -0.08201075345277786, 0.0066888174042105675, -0.041048794984817505, -0.057821087539196014, -0.028694799169898033, -0.02065737545490265, -0.014569109305739403, -0.01259612012654543, -0.025238076224923134, -0.04332108423113823, -0.05220850929617882, -0.013805845752358437, -0.02492859773337841, -0.06657833606004715, 0.024401996284723282, -0.05967080965638161, -0.032985150814056396, -0.04070267453789711, -0.004559373017400503, -0.05268039181828499, -0.017446724697947502, -0.07141365855932236, 0.0023804574739187956, -0.07042764127254486, -0.07329888641834259, 0.01757804863154888, -0.023608574643731117, -0.032303664833307266, -0.027455640956759453, -0.05497479438781738, -0.013836071826517582, -0.002848658710718155, -0.026341086253523827, -0.08455172926187515, 0.0029865324031561613, -0.028904538601636887, -0.023107381537556648, -0.03416934236884117, -0.05672222003340721], [-0.04072095826268196, -0.03305233642458916, -0.012468778528273106, 0.015370206907391548, 0.01535292062908411, -0.006027374882251024, 0.004591886419802904, 0.0011906878789886832, 0.019211018458008766, -0.0016927012475207448, -0.04346488416194916, -0.03021318092942238, -0.039433546364307404, 0.01086774468421936, 0.012677691876888275, 0.011390884406864643, -0.0345582589507103, -0.054886288940906525, 0.016796067357063293, 0.02626521699130535, -0.0440378412604332, 0.021467087790369987, -0.02771708555519581, -0.03800181299448013, -0.0007840532925911248, 0.009204627014696598, -0.039435360580682755, 0.012318531982600689, 0.009878739714622498, -0.022483013570308685, -0.0412675142288208, -0.02522464282810688, -0.03804159164428711, 0.0001827024680096656, 0.007872205227613449, -0.04637753590941429, -0.028296533972024918, -0.024920042604207993, 0.007455400191247463, 0.02091822773218155, -0.01301263552159071, -0.05353163182735443, -0.022397102788090706, 0.0016694359946995974, -0.04040633514523506, -0.04343165457248688, -0.03414396569132805, -0.04038982838392258, -0.028774749487638474, -0.03255600109696388, -0.032643310725688934, -0.0019121431978419423, -0.020899534225463867, 0.01699848845601082, -0.005678119137883186, -0.04349685087800026, 0.017395036295056343, 0.011133724823594093, 0.005855759605765343, -0.03429795429110527, -0.05951334163546562, -0.01657324843108654, -0.043841686099767685, -0.019130822271108627], [0.1559915393590927, 0.0071095735765993595, -0.3594318926334381, 0.5979955196380615, -1.220107078552246, -0.010547813959419727, 0.4185033440589905, 0.0019945555832237005, -0.061183057725429535, -0.22114814817905426, -0.740529477596283, 0.019854100421071053, 0.7206584811210632, 0.08217062801122665, -0.33055272698402405, -0.14715330302715302, 0.5563586354255676, 0.4966825842857361, 0.6521822810173035, 0.00975840538740158, -0.1553494781255722, 0.15966133773326874, -0.02804919332265854, 0.08994052559137344, 0.05026622116565704, -0.13343653082847595, -0.8388413786888123, -1.6868921518325806, 0.4000038802623749, 0.09846124053001404, 0.5999622344970703, 0.013002077117562294, -0.5494424104690552, 0.4828183352947235, 0.46964627504348755, -0.052502766251564026, 0.2511812150478363, 0.8377354741096497, -0.28093892335891724, -0.22051070630550385, -0.38098812103271484, -0.7789334058761597, 0.2830280065536499, -1.014776587486267, 0.4717276096343994, 0.2718299627304077, -0.3689684271812439, -0.8000825047492981, 0.09004675596952438, 0.351260781288147, 0.00491040013730526, 0.3576575219631195, -0.4886009991168976, 0.06154700368642807, -0.8321644067764282, 0.10034890472888947, -0.5220606327056885, 0.09945592284202576, 0.44481268525123596, 0.1382390558719635, 0.1326814740896225, 0.43860068917274475, 0.02428993582725525, 0.19459211826324463], [0.267821729183197, 0.027852442115545273, 0.4462231993675232, 0.28127995133399963, 1.0690828561782837, 0.7535310387611389, -0.24374838173389435, -0.0834130123257637, -0.07836480438709259, 0.5874873995780945, 0.2790123224258423, 0.003153393743559718, 0.44954100251197815, -0.17248322069644928, -0.008090638555586338, -0.28820908069610596, 0.026874424889683723, -0.28991594910621643, -0.42770135402679443, 0.005569643806666136, 0.15781523287296295, -0.13976459205150604, 0.008022082038223743, -0.5201293230056763, 0.2291414439678192, -0.20678766071796417, -0.2650391757488251, 0.23451943695545197, -0.20526649057865143, 0.001253202324733138, -0.06069709733128548, 0.2177276462316513, 0.29202568531036377, 0.18434685468673706, -0.07555162906646729, 0.2755415737628937, -0.15736757218837738, 0.06522881239652634, 0.5977755784988403, -1.1580464839935303, 0.24369849264621735, -1.1250715255737305, -0.22012357413768768, -0.37132909893989563, -0.014369991607964039, 0.43485555052757263, -0.2170105129480362, -0.29659315943717957, 0.46503567695617676, -0.22643247246742249, -0.005023383069783449, 0.5233805775642395, -0.3503958284854889, 0.4935126006603241, -0.13713257014751434, -0.2802765965461731, 0.3353535234928131, -0.2481347918510437, -0.20331159234046936, 0.2426149547100067, 0.28617072105407715, 0.0737554058432579, 0.2453196942806244, 0.045761529356241226], [0.051683761179447174, 0.016233881935477257, 0.051217518746852875, -0.11958346515893936, 0.8182937502861023, 0.20301277935504913, -0.007318455725908279, -0.27106061577796936, 0.13827703893184662, 1.041064739227295, 0.263178288936615, 0.3054625391960144, 0.2975761294364929, 0.1184234544634819, 0.2546534538269043, 0.059550028294324875, 0.2773507237434387, 0.09469536691904068, -0.23501944541931152, -0.01898016221821308, 0.2890292704105377, -0.2394506186246872, -0.1653761863708496, -0.4827415645122528, 0.14761491119861603, -0.32794424891471863, -1.337267518043518, 0.12103752046823502, -0.0586155466735363, -0.025090549141168594, -0.653917133808136, -0.019669264554977417, -0.019303271546959877, -0.2693610191345215, 0.024792486801743507, 0.48213639855384827, -0.05009772628545761, 0.5220268368721008, 0.5734502077102661, -0.37527304887771606, 0.15549157559871674, 0.4338599741458893, -0.610123336315155, -0.461856484413147, 0.027942677959799767, -0.10665565729141235, 0.66238933801651, -0.3698325753211975, 0.17764773964881897, -0.6415243148803711, -0.015643766149878502, 0.06244604289531708, -0.02306816354393959, 0.36310818791389465, 0.06434373557567596, 0.35641762614250183, 0.19484348595142365, 0.035316094756126404, 0.039882779121398926, 0.4309075176715851, 0.10127217322587967, -0.21990713477134705, 0.09085772186517715, 0.05697355046868324], [-0.32545989751815796, -0.039430320262908936, 0.510865330696106, 0.4510459005832672, 1.00095534324646, 0.2326107919216156, -0.429487019777298, 0.4342103898525238, -0.03476310521364212, 0.7488871812820435, 0.2859470546245575, -0.5068791508674622, 0.26259976625442505, -0.01997208595275879, -0.31340792775154114, 0.21779729425907135, -0.4846125841140747, 0.18116061389446259, -0.039270494133234024, 0.027413897216320038, -0.35859596729278564, 0.5108672976493835, 0.1921953409910202, -0.047542233020067215, -0.05681433528661728, -0.4046323895454407, -0.06648276001214981, -0.35041260719299316, 0.32905882596969604, 0.6322073340415955, -0.22592689096927643, 0.0016673882491886616, 0.19032548367977142, -0.626582145690918, 0.17557045817375183, -0.5786656737327576, -0.06516461074352264, 0.003841983387246728, -0.5623706579208374, 0.7269406914710999, 0.29015734791755676, 0.38444817066192627, 0.20511755347251892, 0.3380049169063568, 0.02703334391117096, 0.5174389481544495, 0.5044117569923401, 0.5537010431289673, 0.3257744312286377, -0.3371829688549042, 0.023077964782714844, -0.8134282827377319, 0.14285793900489807, -1.2907201051712036, 0.030331365764141083, -0.08822060376405716, 1.0549129247665405, 0.36617469787597656, 0.33229368925094604, -0.06574305891990662, -0.31812816858291626, 0.5418567657470703, -0.1547730565071106, -0.09728506952524185], [-0.041088808327913284, 0.014318195171654224, -1.203787922859192, -0.33276450634002686, -1.4973368644714355, 0.15477994084358215, -0.05114845931529999, 0.8599197864532471, 0.6470890641212463, -4.741519927978516, -0.5278289914131165, -0.07432404905557632, 0.09358597546815872, 0.06182435154914856, 0.0724257379770279, 0.04432906210422516, 0.10882823169231415, 0.3084656596183777, 0.42760300636291504, -0.030744945630431175, 0.1045602485537529, 0.04905613511800766, 0.2213418334722519, 0.2999802231788635, 0.334294855594635, -0.9807158708572388, -2.2442119121551514, -0.6808305382728577, -0.24493713676929474, -0.4314858615398407, -0.6397255659103394, 0.22119280695915222, 0.35251909494400024, 0.09704587608575821, 0.1325731724500656, 0.2557758092880249, 0.1853984147310257, -1.627875804901123, -0.030511463060975075, -0.5718766450881958, 0.7314527034759521, -0.43857690691947937, -0.6320167779922485, -0.26757651567459106, 0.022524598985910416, 0.46912503242492676, -0.17847585678100586, 0.5058179497718811, 0.09004250913858414, -1.3449618816375732, 0.021570377051830292, 0.4527876377105713, 0.3766753673553467, 0.24551476538181305, -0.9787532687187195, 0.03082166612148285, 0.5102468132972717, -0.7481774091720581, 0.010819802060723305, 0.25421199202537537, -0.016114549711346626, -0.3834894597530365, 0.44843822717666626, 0.2935839295387268], [0.2258969098329544, -0.01051497831940651, 0.24395976960659027, 0.5593990087509155, 0.33126717805862427, 0.26857826113700867, 0.23118159174919128, 0.22953879833221436, -0.03470323234796524, 1.0859551429748535, -0.6752879023551941, -0.619197428226471, -0.16899143159389496, 0.3642796277999878, 0.19233106076717377, -0.7814755439758301, 0.12377030402421951, 0.21554236114025116, -0.673008382320404, -0.01371837593615055, -0.019850080832839012, 0.09426494687795639, 0.6438355445861816, -0.09683667868375778, 0.24417434632778168, 0.26934629678726196, 0.10097325593233109, -0.15258800983428955, -0.31487756967544556, 0.29217827320098877, -0.48799869418144226, 0.2521713376045227, 0.44207680225372314, 0.1573912352323532, 0.15322546660900116, -0.13688567280769348, 0.04595949128270149, 0.021825799718499184, 0.4241255223751068, -0.667906641960144, 0.6520915031433105, -0.15924379229545593, 0.7322263121604919, -0.09376261383295059, 0.44092097878456116, 0.4117458164691925, 0.2871367931365967, 0.02539137750864029, 0.3600495457649231, -0.332981675863266, -0.004051523748785257, -0.26744911074638367, 0.3570694923400879, -0.3923591375350952, -0.022683339193463326, 0.23156431317329407, -2.5147314071655273, -0.568579912185669, -0.7587152719497681, 0.16635026037693024, -0.06267284601926804, 0.07296005636453629, -0.01879749447107315, 0.006448235362768173], [0.040129926055669785, 0.017821118235588074, -0.005846020299941301, 0.3034500181674957, 1.440207839012146, 0.3681780993938446, -0.0762437954545021, 0.059808142483234406, -1.0564454793930054, -0.08178042620420456, -0.019863007590174675, 0.08545053750276566, 0.39439505338668823, -0.11394347250461578, 0.15795567631721497, 0.3185005784034729, 0.11184795200824738, 0.043136827647686005, -0.32403549551963806, 0.012159083038568497, -0.22466188669204712, 0.03569481149315834, 0.3994904160499573, 0.23927783966064453, -0.059502024203538895, -0.04737493768334389, 0.08673425763845444, -0.7702739834785461, 0.056935183703899384, 0.4874820411205292, -0.0585707351565361, -0.05352184548974037, -0.0747891515493393, -0.004773921798914671, -0.01661195419728756, 0.030574660748243332, 0.18512460589408875, -0.19096194207668304, 0.628613293170929, -0.2874104380607605, 0.13327698409557343, -1.0696521997451782, 0.0781877413392067, -0.7255648374557495, 0.21129649877548218, 0.385719895362854, -0.10504169762134552, 0.19970914721488953, 0.08324944972991943, 0.5195255875587463, 0.04044639691710472, 0.012071196921169758, -0.33060482144355774, -0.2119670808315277, 0.20202305912971497, 0.20338904857635498, 0.8916879892349243, 0.4062557816505432, -0.07347359508275986, 0.5069809556007385, -0.10706397145986557, 0.6387282013893127, -0.4622758626937866, -0.386329710483551], [0.2683091461658478, -0.021613137796521187, -0.8371490836143494, -0.34076032042503357, 0.7790305614471436, -0.07379349321126938, 0.2976762056350708, 0.3115827739238739, 0.40416547656059265, -0.09728294610977173, 0.19617778062820435, -2.092419147491455, -0.3390657603740692, -0.5117607712745667, -0.11983448266983032, 0.3516351878643036, 0.23646444082260132, 0.6632953882217407, 0.19692039489746094, -0.012845444492995739, -0.08073539286851883, -0.02427474595606327, 0.19719384610652924, 0.19336628913879395, -0.34394919872283936, 0.22134824097156525, 0.05844181403517723, 0.049340032041072845, -0.5230987668037415, 0.34061455726623535, -1.664426326751709, -0.3840968608856201, 0.159719318151474, -0.8986330032348633, 0.09510067105293274, 0.09797263145446777, 0.45489317178726196, -0.024266894906759262, 0.4994880259037018, -5.730712413787842, -0.5136538743972778, -0.05266167223453522, -0.1902652382850647, 0.2826935350894928, 0.2050563544034958, -1.6082626581192017, -0.23846963047981262, 0.5025979280471802, 0.10499751567840576, 0.3434452414512634, 0.019305577501654625, 0.29012754559516907, -2.0434460639953613, 0.5802410840988159, 0.0717611312866211, 0.31189456582069397, -0.22487221658229828, -0.35508909821510315, 0.2884034216403961, -0.28698739409446716, -0.08100906014442444, 0.23256422579288483, -0.13105952739715576, -3.8899552822113037], [-0.03417830541729927, 0.034466929733753204, -0.011657332070171833, -0.04450862482190132, -0.027964064851403236, 0.0005169872310943902, 0.018685288727283478, 0.005412599071860313, -0.008085360750555992, 0.025559308007359505, -0.02140757255256176, -0.011086014099419117, -0.045179810374975204, 0.014489401131868362, 0.016273362562060356, -0.03562979772686958, -0.0385342501103878, -0.05756547302007675, -0.04086680710315704, 0.00900573655962944, -0.03408355638384819, -0.031926337629556656, -0.0357917957007885, 0.011147051118314266, 0.01141520868986845, -0.04000202566385269, -0.011187678202986717, -0.0028366309124976397, -0.0023392713628709316, -0.0021924858447164297, -0.0093522435054183, -0.011521205306053162, -0.02446310967206955, 0.014596656896173954, 0.025484317913651466, -0.00642204936593771, -0.04597180336713791, -0.0029556723311543465, -0.025677386671304703, 0.01159699447453022, -0.013877560384571552, -0.033194344490766525, 0.0077181472443044186, -0.0080298762768507, 0.02196444757282734, -0.01968800649046898, -0.02314726635813713, -0.012003197334706783, -0.013005550019443035, 0.016183091327548027, -0.014488539658486843, -0.026802480220794678, -0.015948409214615822, -0.033872589468955994, -0.013403077609837055, -0.040189724415540695, -0.006683337967842817, 0.0130767235532403, -0.02948920987546444, -0.022995131090283394, -0.04630761221051216, -0.04455902799963951, 0.006446444429457188, -0.017542537301778793], [0.006174106150865555, 0.03155113384127617, -0.0002569091157056391, 0.002339357975870371, -0.03888952359557152, -0.03001052886247635, -0.006207980215549469, 0.004067310132086277, -0.008019497618079185, 0.010799604468047619, -0.030648835003376007, -0.04763457924127579, 0.001349864061921835, -0.017572294920682907, -0.027604833245277405, 0.01917736604809761, -0.014976641163229942, -0.039403438568115234, -0.05356235429644585, 0.009870825335383415, -0.040244072675704956, -0.04077550023794174, -0.04754304513335228, -0.017923729494214058, -0.001424483023583889, -0.0014826901024207473, -0.010059848427772522, 0.04571818560361862, -0.019065039232373238, -0.06993775069713593, -0.007990832440555096, -0.013613531365990639, -0.024166153743863106, -0.045325636863708496, 0.01252533309161663, 0.029918648302555084, -0.04337550699710846, -0.01282423734664917, -0.04650561884045601, -0.03584177419543266, -0.01801537349820137, -0.02902163378894329, 0.01909632608294487, -0.017231928184628487, -0.011749078519642353, -0.04262944683432579, 0.03229372575879097, -0.01551628578454256, 0.0014137185644358397, -0.05361940711736679, -0.02963356487452984, 0.029457638040184975, 0.020234592258930206, -0.025295807048678398, 0.022395053878426552, -0.05948319658637047, -0.020883575081825256, -0.05232631415128708, -0.059978876262903214, -0.025443458929657936, -0.03779599443078041, -0.009025623090565205, -0.0423426516354084, -0.047979142516851425], [0.1644432693719864, -0.011753692291676998, -0.08423688262701035, -0.23350511491298676, -1.6282963752746582, 0.22990912199020386, -0.4689926505088806, -0.1220429465174675, -0.2561589479446411, 0.28691744804382324, -0.49550092220306396, -0.39108410477638245, -0.30447277426719666, 0.3878512680530548, -0.15287169814109802, -0.10342391580343246, -0.2166593372821808, 0.05300840362906456, -0.5368698835372925, -0.021437790244817734, 0.24303193390369415, -0.34995031356811523, -0.13576379418373108, -0.42393380403518677, -0.2040146291255951, 0.0741807371377945, 0.5536140203475952, 0.04461553320288658, 0.1492418348789215, 0.31694385409355164, 0.08407486975193024, -0.050753526389598846, -0.15980970859527588, 0.16142484545707703, 0.005637490656226873, -0.290601521730423, 0.40274301171302795, 0.11341258883476257, 0.5398774743080139, -0.25310346484184265, -0.03310328349471092, 0.0918981060385704, -0.3840804100036621, -0.0847332626581192, 0.24247336387634277, -0.2392309308052063, 0.3989447355270386, -0.44904443621635437, 0.35292574763298035, 0.48466405272483826, -0.006672474090009928, -0.19183793663978577, 0.13053500652313232, -0.02694651484489441, 0.31506404280662537, 0.13073478639125824, -1.49468195438385, 0.8132067322731018, 0.1431046575307846, 0.45115914940834045, 0.42337164282798767, -0.5079516172409058, -0.11443474143743515, 0.5507086515426636], [-0.029384369030594826, -0.03148754686117172, -0.024013448506593704, -0.05768594518303871, 0.015592897310853004, -0.06020953878760338, 0.0003237522905692458, -0.058977071195840836, 0.08264875411987305, 0.03321530297398567, -0.06341063231229782, 0.004768248647451401, -0.021458683535456657, -0.06707719713449478, -0.015026349574327469, -0.06632962822914124, 0.007373240310698748, -0.07653220742940903, -0.0059361448511481285, -0.037039123475551605, -0.006691071670502424, -0.02199593372642994, -0.018702924251556396, -0.025535494089126587, -0.011423390358686447, 0.03559344261884689, -0.022869737818837166, 0.004027242306619883, -0.04786956310272217, -0.01095870416611433, 0.025162214413285255, -0.012618266977369785, -0.013256341218948364, -0.05229678377509117, 0.0027331023011356592, -0.024461103603243828, -0.03673557564616203, -0.03267274424433708, -0.017522042617201805, -0.047633446753025055, -0.0845278650522232, -0.06361531466245651, -0.0741577073931694, -0.030334601178765297, -0.026682090014219284, -0.024539263918995857, -0.00931725837290287, -0.060845471918582916, -0.08449665457010269, -0.032678600400686264, 0.027449047192931175, -0.05273307114839554, -0.052751000970602036, -0.06767512112855911, -0.026882000267505646, -0.00997896771878004, -0.08600707352161407, -0.018217988312244415, -0.05427802354097366, -0.057220153510570526, 0.010463223792612553, -0.038019392639398575, -0.012247889302670956, -0.01636982522904873], [-0.3573271334171295, -0.018787920475006104, 0.10836619883775711, 0.0887494683265686, 0.5835016369819641, 0.22329509258270264, 0.07986904680728912, -0.2536303997039795, 0.7819944024085999, 0.5804073214530945, 0.052749793976545334, 0.46247509121894836, 0.13576021790504456, 0.6070127487182617, 0.3729746341705322, -0.6290083527565002, 0.17803293466567993, 0.4424026906490326, -0.0017389148706570268, 0.05353539064526558, -0.22933369874954224, 0.03892303258180618, 0.056510914117097855, -0.4662542939186096, 0.16937066614627838, -0.08244074881076813, 0.4627855718135834, -0.13113225996494293, 0.03516598045825958, 0.21437638998031616, 0.4379773437976837, 0.18619117140769958, -0.3197937607765198, 0.7862482070922852, 0.38464489579200745, 0.24365758895874023, -0.06283494085073471, 0.3853461444377899, -0.14287637174129486, -0.23129111528396606, 0.6445844769477844, -0.20406967401504517, -0.4503017067909241, -0.09754541516304016, -0.1486872285604477, -0.5488452315330505, -0.05197996646165848, -0.39239925146102905, -0.2156485915184021, -0.033186037093400955, 0.005676544737070799, -0.06654424220323563, 0.08898822218179703, -0.34239882230758667, -0.41080841422080994, 0.01061783917248249, -0.7572963237762451, -0.11140593886375427, 0.28656741976737976, 0.2868156135082245, 0.17476703226566315, 0.4003409445285797, 0.09619772434234619, 0.18114116787910461], [0.10300729423761368, -0.028174499049782753, 0.11593355238437653, 0.6245616674423218, -0.5294826030731201, 0.020247234031558037, -0.11845968663692474, 0.29326051473617554, 0.6003638505935669, 0.1822611391544342, 0.560915470123291, -0.16783234477043152, -0.25073421001434326, -0.7625088095664978, -0.2797311842441559, -0.5029993057250977, -0.25784704089164734, -0.2657691240310669, 0.07053561508655548, 6.884391041239724e-05, 0.3250977694988251, -0.1366894394159317, 0.24644459784030914, 0.765548825263977, 0.3843000531196594, 0.17792624235153198, 0.3076832890510559, 0.5301086902618408, -1.1234946250915527, 0.02546832337975502, 1.1894818544387817, -0.3286627531051636, -0.04050262272357941, -2.2459404468536377, -0.03628328815102577, -0.24319200217723846, -0.12810596823692322, 0.39250242710113525, -0.7002608776092529, -1.8251588344573975, 0.0037613448221236467, -0.0324687659740448, -0.12817728519439697, 0.34893617033958435, -0.5018665790557861, 0.7509599924087524, -0.18993668258190155, 1.6541416645050049, 0.4225396513938904, -0.2636830806732178, 0.032716017216444016, -0.4025171399116516, 0.0655224621295929, -1.181972622871399, 0.20413681864738464, -0.370612233877182, -0.11005789041519165, 0.510179340839386, -0.5501947999000549, -0.16767258942127228, -0.5274465680122375, -0.6365445256233215, 0.1442207545042038, 0.33690008521080017], [-0.046193428337574005, 0.013328910805284977, 0.06198183447122574, -0.2577095031738281, 0.16842935979366302, 0.6464399695396423, -0.012440771795809269, -0.3063527047634125, -0.1531560719013214, -0.09647724777460098, -0.01283204648643732, -0.5543605089187622, -0.09466513991355896, -0.06207273527979851, 0.06022995337843895, 0.24345485866069794, -0.06065605953335762, 1.0449628829956055, 0.1486126333475113, -0.022293275222182274, -0.0833926647901535, 0.05006531625986099, 0.8312517404556274, -0.07042956352233887, 0.25139689445495605, -0.37691786885261536, 0.06125231459736824, -0.5405606031417847, 0.6515329480171204, 0.07390094548463821, 0.0029131423216313124, 0.034776851534843445, -0.29087284207344055, -0.0787811353802681, -0.22685381770133972, -0.2198997437953949, -0.2860659658908844, 0.24674594402313232, 0.5541147589683533, -0.22324280440807343, -0.030742190778255463, -0.6620938777923584, -0.37086769938468933, -0.3506423830986023, -0.15397058427333832, -0.801056444644928, -0.09126919507980347, 0.033468812704086304, -0.3284081518650055, 0.22111956775188446, 0.019166409969329834, -0.05950281396508217, -0.0894322469830513, 0.0943596363067627, -0.07034625858068466, -0.21845902502536774, 1.8299963474273682, -0.14444823563098907, -0.11281322687864304, 0.003703971626237035, 0.2840006351470947, 0.2632474899291992, 0.6343548893928528, -0.04079470410943031], [0.3577117323875427, 0.02896532230079174, 0.38506045937538147, 0.6722362041473389, -0.20495738089084625, -0.44913509488105774, 0.0491204634308815, 0.4972711503505707, -0.10325253754854202, -0.3787429630756378, -0.40415000915527344, -0.3391268253326416, -0.0714481920003891, 0.834743857383728, 0.02647283859550953, -0.5373015999794006, 0.20600609481334686, 0.2285202294588089, -0.16006594896316528, 0.014149929396808147, -0.08508094400167465, -0.08158493787050247, 0.013028019107878208, -0.3278215229511261, -0.3001592755317688, 0.09060922265052795, 0.27909529209136963, 0.0464172437787056, 0.19594958424568176, -0.08594100922346115, -2.1401610374450684, 0.5822807550430298, 0.18218721449375153, -0.256913423538208, 0.2109498381614685, -0.05463090166449547, 0.21040047705173492, 0.6258285045623779, -1.0738497972488403, 0.45091819763183594, -0.34253615140914917, 0.21499362587928772, 0.8273593187332153, 0.2552632987499237, 0.2571297883987427, 0.3258395493030548, 0.6071109771728516, -0.20997755229473114, -0.07682641595602036, 0.4221527576446533, 0.012031059712171555, -0.10738540440797806, 0.42104536294937134, -0.05741019919514656, 0.3171621859073639, 0.10064119845628738, -0.6745692491531372, 1.2547430992126465, 0.0268641896545887, 0.0524718314409256, -0.06499186903238297, -0.465481162071228, -0.4021528661251068, -1.7632416486740112], [-0.06548747420310974, 0.01674124225974083, 0.3012266755104065, -0.08275029808282852, 0.07593727856874466, -0.23983418941497803, -0.11700368672609329, 0.65777587890625, 0.4442760944366455, 0.4061453938484192, -0.12911486625671387, 0.12276071310043335, -0.16081322729587555, 0.1285366415977478, -0.10237280279397964, 0.6401820778846741, 0.06935717910528183, -0.5525653958320618, 0.6417291164398193, -0.017683852463960648, 0.011901067569851875, -0.5496419072151184, -0.07803433388471603, 0.49377840757369995, -0.279893696308136, 0.1378675401210785, 0.11018963903188705, 0.02298019453883171, 0.25877487659454346, 0.07067552953958511, 0.196688711643219, -0.6204281449317932, -0.3267516493797302, 0.19053342938423157, -0.39396098256111145, 0.1283256709575653, -0.16154637932777405, 0.17429891228675842, -0.3579534888267517, 0.5161240696907043, -0.19318659603595734, 0.33111801743507385, 0.3734866976737976, 0.1517748236656189, -0.08424146473407745, -0.7041597366333008, -0.09515169262886047, 0.18321332335472107, -0.183458611369133, -0.07935172319412231, 0.0047718617133796215, -0.031080251559615135, -0.18748696148395538, 0.24304528534412384, 0.053623687475919724, 0.06965421885251999, 0.32342737913131714, -1.2986607551574707, -0.07137814909219742, 0.3210786283016205, 0.12009575217962265, -0.017547981813549995, 0.32019302248954773, -0.17686718702316284], [0.22006136178970337, 0.013735340908169746, -0.16734348237514496, -0.41546934843063354, 1.297562837600708, -0.08515437692403793, 0.21096773445606232, 0.36636441946029663, 0.3573002815246582, 0.7197755575180054, -0.6248703598976135, -0.4253760278224945, 0.15307295322418213, 0.10062357038259506, 0.2780614197254181, 0.4511694312095642, 0.07613605260848999, 0.17365574836730957, 0.383274108171463, 0.024085190147161484, -0.04333934187889099, 0.3374583423137665, -0.02162768319249153, 0.18227963149547577, -0.011970234103500843, -0.09263589233160019, -1.5564136505126953, -0.05240635201334953, -0.4674050211906433, 0.023517919704318047, -0.25826677680015564, 0.35123348236083984, 0.0032980013638734818, -0.6635544300079346, 0.16352520883083344, 0.28863832354545593, 0.2140597552061081, 0.01176954060792923, -0.41314107179641724, 0.024297315627336502, 0.1651119589805603, -0.1997442990541458, -0.7033478617668152, -0.15457279980182648, 0.30460476875305176, -0.3916154205799103, -0.08849166333675385, -0.1037038117647171, -0.35592418909072876, -0.20406097173690796, 0.03111911378800869, 0.4890609681606293, 0.18979379534721375, -0.12626908719539642, -0.2915895879268646, 0.4850912094116211, -0.20849701762199402, -1.1433357000350952, -0.21162447333335876, 0.858344554901123, 0.2515832185745239, -0.1513620913028717, 0.2492382675409317, 0.04506480693817139], [0.3691752254962921, 0.003715011291205883, 0.2933114171028137, -0.1322346031665802, 0.6316824555397034, -0.8292660117149353, -0.044715508818626404, 0.4203639328479767, -0.12099573761224747, -0.7756143808364868, 0.2711254060268402, -0.11487128585577011, -0.5410647392272949, -0.2718055844306946, -0.0012085618218407035, 0.7328827977180481, -0.09612493216991425, 0.07027006149291992, 0.33535635471343994, 0.011281915009021759, -0.14812570810317993, 0.0875774398446083, 0.4029369652271271, 0.33377236127853394, 0.09697287529706955, 0.234850212931633, 0.48485657572746277, 0.45370322465896606, 0.2589658796787262, -0.3852245509624481, 0.28433695435523987, -0.01150737889111042, -0.013684365898370743, -0.23046083748340607, 0.5287806391716003, -0.24237075448036194, 0.5642004013061523, -0.1806184947490692, -0.9428278207778931, 0.8910139799118042, 0.3862638771533966, 0.3617837131023407, -0.3730934262275696, 0.5318759679794312, 0.2184806764125824, -0.14471422135829926, -0.17504699528217316, 0.32424721121788025, 0.1523546576499939, -0.2758271098136902, 0.008166688494384289, -0.11571750789880753, 0.20096637308597565, -0.15149502456188202, 